svm_type c_svc
kernel_type linear
nr_class 14
total_sv 516
rho -0.30421114310294178 -0.51243596612239461 -0.050571452781823137 0.32459065227441614 -0.020238806867570076 0.30734220244776245 0.10050441193728479 -0.24063597930906899 -0.16433828947959006 0.10655190014825815 0.20620178277490661 -0.36863746615375231 0.073218875795895214 -0.00019525048317330473 0.18256878408541699 0.38503186364710129 0.30486729211682434 0.56457407748349464 0.44539940016730312 0.047262937301205954 0.086857010993592776 0.36247175567020812 0.37543764595335177 0.067908748366119431 0.30741651083049798 0.27036146827886498 0.50184827659820275 0.36479692202984437 0.44570908678733268 0.4923691654262583 -0.041617775962091291 0.25516262790035626 0.50900197634234945 0.36797104247938528 -0.0010234128175455233 0.51888682305482725 0.27389736541939108 0.043457845777633619 0.2358862389724245 0.17455031812333338 -0.30791865561111187 -0.088590100644088107 0.13876353788312679 0.21252458915886324 -0.22639875246172361 0.050883726126018311 -0.39556765787123183 -0.035861272584168366 -0.14376422955215049 -0.58505827231863761 -0.30220520669825085 -0.1887228543989814 -0.058426922669632265 -0.48374697420801993 -0.18982547164421149 0.23340669183098048 0.097719330424916234 -0.27855335193392344 -0.12125590561601002 0.018143395878144543 0.16348234596677394 -0.42664080122533232 -0.05091805847497094 -0.26092110741306918 -0.49781761742011033 -0.28337519177600268 -0.094313896693082933 -0.10537568108022935 -0.70348500553185378 -0.30530581247779742 -0.39579205814999624 -0.22313465421702536 0.04120930397916036 0.088411233817617077 -0.51727188058312723 -0.11716817961181038 0.14305636883730646 0.48864371685079222 0.35556925898642799 0.087148828267516715 0.26201914094740775 0.25871987176571021 0.27573489084605696 -0.17763770737337786 0.083740699471337374 0.15499302901879169 -0.44573196862080811 -0.09088014728214068 -0.33610274118152861 -0.18421477792993746 0.44634359141708724
label 0 1 2 3 4 5 6 7 8 9 10 11 12 13
probA -4.2816423043967307 -4.1623018485684655 -4.1223472630997193 -4.1180544654139188 -4.1712222487852095 -4.1966181787989241 -4.2252131581563308 -4.1575969286863979 -4.1801835821036306 -4.2770987301464549 -3.9155461495106638 -4.2336448216381202 -4.1953153882498766 -4.3479761563557924 -4.3292214706428664 -4.2688363667621081 -4.2716772281305042 -4.270718164082238 -4.3089172345242162 -4.3018266696235345 -4.3491608011428236 -4.3155143735176047 -3.599659506866395 -4.2716653531999604 -4.1723989517478515 -4.2378279962716183 -4.2180595325349683 -4.2728095127924091 -4.1536057736334806 -4.3137364371867175 -4.2971284630478053 -4.2631387808913512 -4.3228363634051936 -3.7469229880746586 -4.248992644348351 -4.2804592137690971 -4.1346240254663167 -4.2129390716254793 -4.1811601598080115 -3.9935557664589747 -4.2153130568369042 -4.3151494385312432 -4.0465772230774366 -4.1100830551523622 -4.2036437790452226 -4.1694096227848396 -4.3369403044625709 -4.1468118058435177 -4.0378818094672768 -4.0406469717200926 -4.28380640494166 -4.1440044149840967 -3.9669822221374362 -4.2551390858525764 -4.1835419509835079 -4.1422020488055509 -4.3866658566692216 -4.1476561358986723 -4.2877845276136108 -4.1396628745185291 -3.9161503426311026 -4.2837127477739614 -4.2086728210100794 -4.1866674784052931 -4.1817543982256096 -4.2382840242852451 -4.1357971304606735 -4.4597032000548262 -4.2598543611045905 -4.0192430715770984 -4.1090747323975405 -4.0910847836983715 -4.127351909952913 -4.2525027951584411 -4.3234203869950258 -4.2506029280605286 -4.2947846769003561 -4.1675143306988662 -3.6625228744054037 -4.2345552660423529 -4.1443574790074562 -4.2357552932272 -3.7679735665235956 -4.2006656108195015 -4.0130792875698207 -4.07736921709719 -4.2287153702959639 -4.1301828556636293 -3.6256037400434074 -4.0068062520687571 -4.2008602377852666
probB -0.007924858658597508 0.10243519987462345 0.084053354174744355 0.15638612598648532 0.022187185193859253 -0.003639502934656294 0.16393980783068487 -0.043432753154395799 -0.07622738754100547 0.20503924383890229 -0.21881637442987503 -0.031321002181185664 0.09094815750128997 0.055899891565743091 0.047963208073617411 0.063741380088949806 -0.046798022367836423 0.019379637260381444 -0.017914571575951596 -0.016576809811016887 -0.011432691653434246 0.038614696779500829 -0.65136899681030358 0.066661460352664292 -0.092896798260764329 -0.12199638040008334 -0.065531151747072872 -0.10035010661145458 -0.19489293130752713 -0.01451620322308422 -0.10659973213297945 -0.069144403306077878 -0.026417289718489254 -0.64117725237198886 -0.020447386797134853 -0.0010204900694668827 0.018835752777647444 0.035358078397215408 -0.067272166069334366 0.048252269506270699 0.032892878353650901 -0.028264568333539342 0.023848100978868452 0.056984199188029105 0.042188872243854605 0.0028543015368660538 -0.088759466635037435 -0.023192942193854933 0.049940725669698816 0.056248932003693519 -0.072979038454142137 -0.37934194943153671 -0.32139005031858608 0.036442192571038097 -0.16332619545137358 -0.030985398457592093 -0.12518452198465091 -0.067816203328156341 -0.010725730874192553 0.31744808697902438 -0.17727030397630125 0.07002954377836422 -0.10479775951591619 -0.04755823220359276 -0.043783432848970044 -0.039720477872748079 0.15887225887286041 0.56051167373613964 0.14046766842749533 0.089222986171965488 -0.056837764068464192 -0.16803922536020099 0.11907073993082011 0.33923701552338659 0.051012758109387865 -0.034700537091736039 -0.0060920541520508393 0.014388809864312251 -0.51752987723803368 0.13609464373091204 -0.050567789710683889 0.062178290570232511 -0.55977956044772359 0.061060292830498707 0.12627192461686201 0.048970043640158514 -0.0077760507114727788 -0.15558540383516176 0.76066476387517656 0.14104401279216067 0.03308742323003621
nr_sv 45 28 46 46 26 40 34 47 35 33 57 7 34 38
SV
0 0 0 0 0 0 0 0 0.36039895671647382 0 0 0 0 0:0.0313825 1:-0.0141124 2:0.0158284 3:-0.0309263 4:0.0657298 5:-0.0610145 6:0.0386536 7:-0.01605 8:0.039062 9:0.0349651 10:0.0103 11:-0.0666875 12:-0.108873 13:-0.0424051 14:0.0398001 15:-0.0671374 16:0.0500108 17:-0.0500217 18:0.0402737 19:0.0400464 20:-0.00936546 21:-0.0196478 22:-0.0137291 23:-0.00116432 24:0.00734732 25:-0.0365159 26:-0.143145 27:-0.0377651 28:-0.0716042 29:0.010224 30:-0.00467917 31:-0.0130981 32:-0.0623572 33:0.0351263 34:-0.055278 35:0.0131456 36:-0.0868274 37:-0.0292755 38:-0.000453666 39:0.00190089 40:0.0375067 41:-0.0658365 42:-0.0682863 43:0.00550821 44:-0.0497535 45:0.0394193 46:-0.00555129 47:-0.0116841 48:0.0102938 49:0.0887315 50:0.00850488 51:-0.0189929 52:-0.0683853 53:-0.00267624 54:-0.0187545 55:0.0410494 56:-0.0102967 57:-0.0361979 58:0.0816662 59:0.0516742 60:0.0505124 61:-0.027231 62:0.0257062 63:0.0281154 64:0.0592625 65:0.0561531 66:0.00193653 67:-0.04476 68:0.0374843 69:0.0601905 70:-0.000949988 71:0.0304665 72:0.0511561 73:0.0152907 74:-0.0413051 75:-0.0739107 76:-0.0166879 77:0.0391868 78:-0.0298674 79:0.00321904 80:0.0441281 81:-0.00830216 82:0.0337194 83:-0.00347277 84:-0.028261 85:0.0126439 86:0.0427057 87:-0.145613 88:-0.0127452 89:-0.014707 90:0.0153593 91:-0.110951 92:-0.0303282 93:-0.0238138 94:-0.0336479 95:-0.0146064 96:0.00254015 97:0.0708371 98:0.0650459 99:0.03209 100:-0.046461 101:0.0016101 102:0.00549432 103:0.0258411 104:0.0515852 105:-0.00831481 106:-0.00320329 107:0.0154196 108:-0.00879025 109:0.00584746 110:-0.0362895 111:-0.0577658 112:-0.0651945 113:-0.00701971 114:-0.0645081 115:0.016388 116:-0.0702153 117:-0.0434459 118:0.019907 119:-0.0275116 120:0.0339492 121:0.0220751 122:-0.0375802 123:-0.0483186 124:0.0153896 125:-0.00900059 126:0.00664283 127:-0.0964428 128:0.0782346 129:0.0399588 130:0.0334921 131:-0.0292342 132:-0.0269535 133:0.0213495 134:-0.041023 135:-0.0401142 136:0.000605637 137:0.000769459 138:-0.0335715 139:-0.0553477 140:0.0208276 141:0.0372758 142:-0.0775811 143:0.0708497 144:-0.0263808 145:0.0786755 146:0.0469636 147:0.0188474 148:-0.01413 149:0.0067985 150:0.0612598 151:0.0306884 152:0.0154591 153:0.00601105 154:0.0915006 155:0.0235942 156:-0.0425798 157:0.0230266 158:-0.0110395 159:-0.0465574 160:0.00162937 161:0.0566636 162:0.10985 163:-0.0190688 164:0.0136409 165:-0.0875222 166:0.00580729 167:0.0136058 168:-0.0519296 169:0.0232551 170:-0.0510854 171:-0.0572808 172:-0.0105187 173:-0.0172824 174:-0.0320351 175:-0.0145191 176:-0.00360359 177:0.0214201 178:0.025583 179:-0.0501529 180:0.0475892 181:-0.0650542 182:0.0315986 183:0.00683712 184:0.0105191 185:-0.0334214 186:-0.00161299 187:-0.0476048 188:0.0651275 189:-0.00852999 190:-0.0488994 191:0.0447017 192:0.0170583 193:-0.0180712 194:0.0486276 195:0.064285 196:0.00785069 197:-0.0165184 198:-0.022083 199:-0.017691 200:-0.0187879 201:-0.016734 202:0.000384053 203:0.0897575 204:-0.00704239 205:0.0264352 206:0.0328223 207:0.00596758 208:0.056948 209:0.00306954 210:-0.0277095 211:0.0350452 212:0.0871715 213:0.0537803 214:-0.0126638 215:-0.0153486 216:-0.0257509 217:-0.0469606 218:0.0104056 219:-0.00370565 220:0.0178183 221:-0.0521117 222:-0.0514502 223:-0.0193553 224:0.0121169 225:-0.0301695 226:0.00489509 227:-0.00513209 228:0.00142299 229:0.0259688 230:-0.056723 231:0.0429763 232:0.0220988 233:0.127734 234:0.0165911 235:0.000879417 236:-0.0246756 237:0.0037768 238:0.0101656 239:-0.0335082 240:0.0273688 241:-0.00669504 242:-0.0167217 243:0.00586281 244:-0.00660445 245:-0.00544487 246:-0.0514484 247:0.0456195 248:-0.0116927 249:0.0277489 250:-0.0468451 251:0.0192946 252:-0.0173612 253:0.0341618 254:-0.0279787 255:0.0388036 256:0.0354412 257:0.125666 258:0.00451162 259:0.06042 260:-0.00920476 261:-0.0268396 262:0.0205998 263:-0.0292321 264:0.0101512 265:0.0323282 266:0.0261919 267:0.0481712 268:0.0407226 269:-0.0112344 270:-0.0832567 271:-0.0295812 272:-0.0212559 273:0.00305578 274:0.0131083 275:0.0420171 276:-0.00486168 277:0.0637136 278:0.0125097 279:-0.0285342 280:-0.0376053 281:0.0360768 282:-0.043618 283:-0.0501579 284:0.0371748 285:0.0090049 286:-0.048916 287:0.0125664 288:0.0105334 289:0.0591015 290:0.0861562 291:0.029346 292:0.000281645 293:0.0209371 294:0.00468185 295:-0.0202855 296:0.0779761 297:0.0248552 298:-0.0575736 299:-0.00148916 300:0.00816946 301:-0.0129547 302:-0.0887432 303:-0.00661402 304:0.0631923 305:-0.0344608 306:0.0768503 307:0.00379957 308:-0.0014764 309:-0.0313692 310:0.120579 311:0.0432556 312:-0.0220144 313:0.0606718 314:-0.0528394 315:0.0693048 316:0.018074 317:0.00397817 318:-0.0224486 319:-0.0464786 320:0.00265902 321:-0.0778412 322:-0.0274821 323:-0.0308854 324:0.0366525 325:0.0028189 326:-0.0187546 327:-0.0117225 328:0.0473292 329:-0.054573 330:-0.0370772 331:-0.0418401 332:0.0753955 333:0.0252468 334:-0.0153763 335:0.0394743 336:0.0153384 337:0.0419356 338:-0.0209402 339:-0.0743204 340:0.0582936 341:0.023343 342:0.0380792 343:0.0795319 344:-0.0548583 345:0.0117121 346:-0.0141392 347:-0.0722168 348:-0.0442481 349:0.0903963 350:-0.0515287 351:0.0543491 352:0.0689729 353:0.034929 354:-0.0585383 355:0.0783512 356:-0.0516201 357:-0.000860172 358:0.0510259 359:-0.0153403 360:0.0144274 361:0.073035 362:-0.013182 363:-0.020082 364:0.0286773 365:-0.0199036 366:-0.0477904 367:0.103195 368:-0.0771519 369:0.025965 370:-0.0473866 371:0.0270636 372:0.0625728 373:-0.00958032 374:0.00121416 375:0.0151057 376:0.00783079 377:-0.0250774 378:0.0483037 379:0.00188934 380:0.0285197 381:-0.0442089 382:0.0257825 383:0.00601669 384:0.0472691 385:-0.00575429 386:0.0624701 387:0.0197825 388:0.0471389 389:0.0167643 390:0.00171101 391:-0.0198825 392:-0.0333907 393:0.0373416 394:-0.00875306 395:0.00532007 396:-0.0173085 397:0.0579237 398:-0.029538 399:0.0269562 400:0.0719539 401:0.0126243 402:0.0278039 403:-0.0112901 404:-0.026927 405:0.106097 406:-0.047607 407:0.100008 408:-0.0238971 409:0.0264716 410:-0.0569907 411:-0.018367 412:-0.0341735 413:0.0159372 414:-0.061874 415:-0.0165514 416:-0.0435903 417:0.00889056 418:0.0471525 419:0.0245872 420:-0.000128708 421:-0.0263091 422:-0.0381845 423:-0.0177775 424:0.0348331 425:-0.0753951 426:0.0601696 427:-0.0535107 428:0.00278942 429:0.0709135 430:0.0035966 431:-0.0601182 432:0.00822787 433:-0.00881756 434:-0.116169 435:0.058911 436:0.0216402 437:0.0190168 438:0.030452 439:-0.0251161 440:-0.0356697 441:0.0440538 442:-0.024356 443:-0.00480177 444:0.0571729 445:-0.0823419 446:-0.0414965 447:0.00254403 448:-0.0305283 449:0.0210794 450:-0.0606527 451:0.0111882 452:-0.0610122 453:-0.0155115 454:-0.0363731 455:0.0176314 456:-0.131091 457:-0.025209 458:-0.0487374 459:-0.0135751 460:-0.103276 461:0.0059337 462:0.00657118 463:0.0308921 464:-0.0252664 465:-0.0403102 466:0.0704027 467:-0.0167994 468:-0.0632102 469:0.0137083 470:0.0840996 471:-0.0242931 472:0.10926 473:0.0251853 474:0.0126571 475:0.0229254 476:0.0113212 477:-0.0674513 478:-0.00926409 479:-0.0730644 480:-0.0597112 481:0.0170192 482:-0.0588781 483:0.0167391 484:-0.045614 485:0.0286277 486:0.0164297 487:-0.053863 488:-0.0199486 489:-0.0227435 490:-0.114882 491:-0.0376852 492:-0.0553926 493:-0.0352476 494:0.063272 495:0.0352338 496:0.000205477 497:-0.0176132 498:0.00513009 499:0.00216094 500:-0.0196488 501:0.00739893 502:0.0618065 503:-0.0458106 504:0.0151371 505:0.0112858 506:-0.0319033 507:-0.0429148 508:-0.00872333 509:-0.0983106 510:0.0311906 511:-0.0968526 
0 0 0 0 0.058009533619534433 0 0.37723343126006975 0.9581783384860757 0 0 0.2464763334950735 0 0 0:0.058378 1:-0.0285709 2:-0.00439928 3:-0.0885348 4:0.0641685 5:-0.0445355 6:0.0467252 7:-0.0133545 8:0.065726 9:-0.0076911 10:-0.000527827 11:-0.119167 12:-0.0739188 13:-0.0145164 14:-0.0668699 15:-0.0462773 16:0.0251357 17:-0.0416477 18:0.00702997 19:0.0130574 20:0.0224887 21:-0.00877005 22:-0.0287861 23:-0.0139729 24:-0.00226602 25:0.0352296 26:-0.072211 27:-0.0735424 28:-0.0864656 29:0.0536774 30:-0.00207633 31:-0.0558532 32:-0.0018053 33:0.0136666 34:-0.0292423 35:0.0326187 36:-0.0851473 37:-0.0568816 38:0.017668 39:0.0191389 40:0.0312076 41:-0.0540605 42:-0.045311 43:0.0522967 44:0.00209432 45:0.0344593 46:-0.0266793 47:0.0221526 48:-0.00844997 49:0.0949162 50:0.0448994 51:-0.078399 52:-0.00426211 53:0.00282372 54:-0.031721 55:0.0195667 56:-0.0397205 57:-0.0394078 58:0.0860599 59:0.0674483 60:0.0422524 61:-0.0801662 62:-0.00843069 63:0.0219682 64:0.0739193 65:0.0270032 66:-0.0374578 67:-0.0496234 68:0.00846696 69:0.0267372 70:0.032149 71:0.0626241 72:0.0544062 73:0.0462974 74:-0.0415408 75:-0.0676063 76:-0.0198111 77:0.0127712 78:-0.016056 79:-0.00822831 80:0.0064101 81:0.00517282 82:-0.0169848 83:0.00916617 84:0.00681102 85:0.0458453 86:0.0775743 87:-0.145154 88:-0.00855053 89:0.0201957 90:-0.0231039 91:-0.070265 92:-0.0378968 93:-0.0260008 94:-0.0258704 95:-0.0749099 96:-0.0246857 97:0.0795477 98:0.0631382 99:0.0559998 100:-0.0436459 101:-0.00660757 102:0.019472 103:0.000514176 104:0.0574633 105:-0.0142121 106:-0.00414197 107:0.0888389 108:-0.0116505 109:-0.00771569 110:-0.0212476 111:6.11314e-05 112:-0.115593 113:-0.0254683 114:-0.063993 115:-0.00716575 116:-0.044349 117:0.0206001 118:-0.0142563 119:-0.0439379 120:-0.00221099 121:-0.0178697 122:-0.018036 123:-0.0325212 124:-0.0291494 125:0.0460764 126:0.0570472 127:-0.101734 128:0.0663115 129:-0.0299488 130:0.00514928 131:0.0239022 132:-0.0553582 133:-0.0199749 134:-0.0328166 135:-0.0759249 136:0.0125917 137:0.000609155 138:-0.0478993 139:-0.0413843 140:0.065381 141:0.00504083 142:-0.0533274 143:0.029711 144:-0.00240675 145:0.115106 146:0.0347801 147:0.0169147 148:-0.0147277 149:0.0101852 150:0.0413853 151:0.0383095 152:0.0110186 153:-0.0240259 154:0.113017 155:0.0139041 156:-0.0144034 157:-0.0229335 158:-0.025403 159:-0.0510434 160:-0.0189024 161:0.00248535 162:0.118988 163:-0.00153878 164:-0.000190935 165:-0.0505555 166:0.0199273 167:0.0516643 168:-0.0522734 169:0.0308409 170:-0.0827709 171:-0.0796276 172:0.00943856 173:-0.0278999 174:-0.0430164 175:-0.0189641 176:-0.0139239 177:-0.00128101 178:0.0693322 179:-0.04778 180:0.00716479 181:-0.064576 182:0.00322327 183:-0.0180361 184:-0.0417918 185:-0.0200504 186:0.0172524 187:0.0215329 188:0.0324034 189:0.0196632 190:0.00498092 191:0.0447053 192:-0.0182631 193:0.0284191 194:0.0204253 195:0.0492572 196:0.00375184 197:-0.0563919 198:-0.0108697 199:-0.0344623 200:0.0249797 201:-0.0248189 202:0.02266 203:0.0526466 204:0.0179137 205:0.0442387 206:-0.00423648 207:0.0247098 208:0.0398848 209:0.00249904 210:-0.0384192 211:0.0349345 212:0.0376566 213:-0.000486686 214:-0.0165289 215:-0.0824343 216:-0.0145572 217:-0.0115613 218:0.0182032 219:0.0201769 220:0.00690636 221:-0.000383302 222:-0.0952611 223:0.00530437 224:0.0180211 225:-0.00537281 226:-0.0586965 227:-0.0311185 228:0.00160396 229:0.0260106 230:-0.0268087 231:0.00822519 232:0.0415401 233:0.146707 234:-0.00572171 235:-0.0128602 236:-0.0168318 237:-0.0103742 238:0.00569133 239:-0.0684089 240:0.0467685 241:0.0650714 242:-0.0215866 243:-0.0146 244:0.0573106 245:0.0142858 246:-0.065453 247:0.0476603 248:0.0555662 249:-0.0137447 250:-0.0345186 251:-0.0160408 252:-0.00992239 253:0.0425551 254:0.00920383 255:-0.000842066 256:-0.0104771 257:0.109393 258:0.00881074 259:0.0877598 260:-0.018759 261:-0.0157143 262:0.0443228 263:0.0375159 264:0.0202626 265:0.0108936 266:0.0255347 267:0.0141876 268:-0.0142854 269:0.0124875 270:-0.050182 271:-0.00854846 272:0.00451159 273:-0.036111 274:0.0368435 275:0.0110608 276:0.00615476 277:0.0524283 278:0.0299551 279:0.0330534 280:-0.022415 281:0.0210687 282:-0.00939113 283:-0.0702833 284:0.0341328 285:0.0261428 286:-0.0478255 287:0.047554 288:-0.0457803 289:0.0243456 290:0.0766776 291:0.0182757 292:-0.0203614 293:0.00547454 294:-0.00564674 295:-0.0023573 296:0.0676414 297:-0.0075909 298:-0.0611007 299:-0.00503202 300:0.0298723 301:-0.00630075 302:-0.0238562 303:0.0296444 304:0.0470263 305:-0.0499164 306:0.0717737 307:-0.0294327 308:-0.00971416 309:-0.0257436 310:0.10728 311:0.0213006 312:-0.0557658 313:0.0236925 314:0.0212337 315:0.0787095 316:0.0395434 317:-0.00713184 318:-0.0153936 319:-0.0320849 320:-0.0308089 321:-0.0688747 322:-0.0673427 323:-0.015097 324:0.0316914 325:0.0274867 326:-0.0125617 327:-0.029241 328:0.0457438 329:-0.0254285 330:-0.0385867 331:-0.0466422 332:0.0593453 333:0.00289053 334:0.0248314 335:0.0576653 336:0.0206165 337:0.0238817 338:-0.0160021 339:0.0163489 340:0.0342856 341:-0.0336638 342:0.0574867 343:0.0464603 344:0.0230205 345:0.0214432 346:-0.0476179 347:-0.0421306 348:-0.0246635 349:0.0350609 350:-0.0190224 351:0.0306657 352:0.0580418 353:0.0366 354:-0.0232527 355:0.0542842 356:0.00873549 357:-0.00411064 358:0.0158626 359:0.0133537 360:-0.0331905 361:0.0419364 362:0.00693635 363:-0.0313203 364:0.0206652 365:0.0322138 366:-0.0349639 367:0.123689 368:-0.0291783 369:0.0372036 370:-0.0424868 371:0.0414171 372:0.0220618 373:0.0233098 374:0.00744391 375:0.000190225 376:-0.0598212 377:-0.0113881 378:0.0604483 379:0.0409272 380:0.021081 381:-0.0402803 382:0.0331245 383:-0.0325668 384:0.0529174 385:-0.0353073 386:0.033211 387:-0.00156996 388:-0.00458195 389:0.0175099 390:-0.0017755 391:0.017515 392:-0.0276399 393:0.0287696 394:-0.0264129 395:-0.0316999 396:0.00063456 397:0.0772144 398:-0.0376637 399:0.00691081 400:0.053064 401:0.0158307 402:0.0588349 403:-0.00068277 404:-0.0101024 405:0.138193 406:-0.0574965 407:0.0845307 408:0.0269403 409:0.0410962 410:-0.0165816 411:0.00403364 412:-0.00330889 413:0.0510246 414:-0.0523421 415:-0.0215953 416:-0.0501507 417:-0.0100636 418:0.0382053 419:-0.01589 420:0.000396134 421:-0.038465 422:-0.0820724 423:-0.0280316 424:0.0377664 425:-0.0416855 426:0.0238185 427:-0.0391722 428:0.0338434 429:0.026415 430:-0.00520533 431:-0.0661376 432:-0.0352048 433:0.0239955 434:-0.101685 435:0.0415506 436:0.0350568 437:0.043872 438:0.0387228 439:-0.0172247 440:-0.0211885 441:0.0119481 442:-0.0159706 443:0.0185813 444:0.0419982 445:-0.0934089 446:-0.0859791 447:-0.00142091 448:-0.0870098 449:0.0127394 450:-0.0503481 451:-0.00169965 452:-0.0294666 453:-0.0432841 454:-0.0708904 455:0.0335297 456:-0.11834 457:-0.081386 458:-0.060687 459:-0.0510624 460:-0.0225363 461:-0.0166772 462:0.0228661 463:0.0141601 464:-0.0307142 465:-0.0329989 466:0.0750461 467:0.0221572 468:0.000501058 469:-0.000566725 470:0.0914586 471:-0.00891622 472:0.0966787 473:0.0265778 474:-0.00550779 475:-0.00119842 476:0.000326954 477:-0.0741317 478:-0.0387985 479:-0.0377182 480:-0.0653357 481:0.0527627 482:-0.0715837 483:0.0353794 484:-0.07763 485:0.0434778 486:0.0289378 487:-0.0677526 488:-0.0301292 489:-0.0401052 490:-0.0779873 491:-0.00372033 492:-0.106937 493:-0.0301122 494:0.0394797 495:0.059252 496:0.0218839 497:-0.0462825 498:0.00416631 499:0.00148947 500:0.0349688 501:-0.0366956 502:0.0781369 503:-0.0489802 504:0.0417033 505:0.0228839 506:-0.0263915 507:7.54009e-05 508:-0.0249487 509:-0.0746436 510:0.000201522 511:-0.089354 
0 0 0 0 0.35697846286837603 0 0.20467084883251727 0 0 0 0 0 0 0:0.0321198 1:-0.0165679 2:-0.0244093 3:-0.0790255 4:0.0301939 5:0.0577359 6:0.0343557 7:-0.00162817 8:-0.0234358 9:-0.0192019 10:0.00611554 11:-0.0839563 12:-0.0741076 13:-0.0911098 14:0.0367249 15:-0.0402602 16:0.0743578 17:-0.02804 18:0.0367562 19:0.0165625 20:0.0122196 21:0.000413208 22:0.00717522 23:-0.0343257 24:0.0426667 25:-0.0395555 26:-0.135916 27:-0.0293073 28:-0.0722794 29:-0.0314688 30:0.00892264 31:-0.0308526 32:-0.0573945 33:0.0653728 34:-0.0593761 35:0.0146949 36:-0.123282 37:-0.00304413 38:-0.0298262 39:-0.0205937 40:0.0539087 41:-0.0135161 42:-0.069618 43:0.019413 44:-0.0261738 45:0.0258585 46:-0.0428537 47:0.0162022 48:-0.017715 49:0.0623698 50:-0.0314758 51:-0.0200922 52:-0.0266371 53:0.00802474 54:-0.0406671 55:0.0449354 56:0.0160521 57:-0.056177 58:0.113034 59:0.0346408 60:0.0143416 61:0.00384519 62:-0.00972751 63:-0.0312284 64:0.0472926 65:0.0492178 66:0.0656489 67:-0.0423317 68:0.0356353 69:-0.00482292 70:0.0272872 71:0.0240154 72:0.0275162 73:0.0128308 74:-0.108836 75:-0.021094 76:0.0158754 77:0.0156795 78:0.00323434 79:0.00651958 80:0.0761611 81:0.0116808 82:0.0532646 83:0.0224323 84:-0.00973013 85:-0.0481155 86:0.059567 87:-0.173669 88:-0.0513172 89:-0.00335632 90:0.0174655 91:-0.093812 92:-0.0670912 93:-0.0519594 94:-0.0530176 95:-0.033313 96:-0.000535586 97:0.0825437 98:0.0741469 99:0.0271253 100:-0.00483307 101:-0.0445703 102:0.0101628 103:0.0282845 104:0.0559005 105:-0.0240263 106:0.0150448 107:0.0465746 108:-0.0351286 109:-0.0209576 110:-0.078774 111:-0.0814405 112:-0.018186 113:0.0258862 114:-0.0915107 115:0.0410454 116:-0.040984 117:-0.0154567 118:0.00970845 119:-0.00551168 120:-0.00954624 121:-0.00107291 122:-0.00124369 123:-0.0576422 124:-0.0197595 125:0.00989982 126:-0.0338114 127:-0.0883376 128:0.0621984 129:0.0484199 130:-0.030648 131:0.00941865 132:-0.0472014 133:-0.0464994 134:-0.014249 135:0.00209678 136:-0.0296532 137:0.00934044 138:-0.0568266 139:-0.0461165 140:0.0697991 141:-0.0248247 142:-0.0699434 143:0.00262037 144:0.0412091 145:0.0783022 146:-2.56676e-05 147:0.0109377 148:0.0318197 149:-0.0394223 150:0.0255126 151:0.0379495 152:0.0300642 153:0.00624437 154:0.0572419 155:8.2969e-05 156:0.0366631 157:-0.0547 158:0.0307463 159:-0.0760833 160:-0.00594594 161:0.0177835 162:0.0525943 163:-0.0527924 164:-0.016445 165:-0.0689324 166:-0.0182658 167:0.00753009 168:-0.0333624 169:0.049489 170:-0.0533556 171:-0.0526336 172:0.0320299 173:-0.0386522 174:-0.0322471 175:-0.0175558 176:-0.00447583 177:-0.0332085 178:-0.0152286 179:-0.0895038 180:0.0644343 181:-0.0498294 182:0.00296265 183:0.0368135 184:0.0210959 185:-0.0539346 186:-0.00550925 187:-0.0257475 188:0.0435246 189:-0.000656525 190:-0.0139822 191:0.0627657 192:0.00935195 193:0.0508637 194:0.0451371 195:0.0616454 196:0.0191439 197:-0.064083 198:-0.0661678 199:-0.0145909 200:0.0594727 201:9.79637e-05 202:0.0383369 203:0.1051 204:-0.00125912 205:0.0522391 206:-0.01084 207:0.0254887 208:0.0708409 209:-0.00940105 210:-0.0281416 211:-0.0294608 212:0.0494662 213:0.0359137 214:0.0144318 215:-0.0816873 216:-0.0639104 217:-0.0016991 218:-0.0137753 219:-0.0109648 220:-0.00501469 221:0.00784048 222:-0.0109283 223:-0.0141585 224:0.0151511 225:0.0164563 226:-0.0223942 227:-0.0272884 228:0.0101017 229:0.0269922 230:-0.010951 231:0.0132321 232:0.0467276 233:0.0645985 234:0.0600563 235:-0.0142655 236:0.00220645 237:0.0386864 238:0.0117662 239:-0.0314049 240:0.000622895 241:0.036507 242:-0.0383287 243:0.0631856 244:0.0528549 245:-0.0770898 246:-0.0619796 247:0.0778954 248:-0.0165965 249:0.00621486 250:-0.0161515 251:-0.0307584 252:0.0220093 253:-0.0502743 254:-0.0146106 255:-0.0209054 256:0.004021 257:0.134892 258:0.040904 259:0.0715683 260:-0.0284495 261:-0.0162021 262:-0.0117159 263:0.00516086 264:-0.00752032 265:0.00163958 266:0.0228749 267:0.0326537 268:-0.011502 269:-0.0192924 270:-0.0323578 271:0.0289119 272:0.0252682 273:0.00370952 274:-0.0126199 275:-0.0365677 276:-0.0226787 277:0.0548032 278:0.0308466 279:-0.00449203 280:-0.0366413 281:0.00110199 282:-0.0606417 283:-0.052045 284:0.0788855 285:0.00168222 286:-0.0305193 287:0.0157149 288:0.0595404 289:0.0372078 290:0.0148696 291:0.068834 292:0.0454934 293:-0.000382747 294:0.00845828 295:0.00840072 296:0.0897971 297:-0.00642809 298:-0.0252594 299:-0.0410868 300:0.0447538 301:0.0424366 302:-0.000698613 303:0.043913 304:0.0546661 305:-0.0585652 306:0.0230801 307:0.0492985 308:0.0182265 309:0.0313327 310:0.0661018 311:0.00337519 312:-0.0230416 313:-0.00363128 314:-0.0137 315:0.0447616 316:0.017461 317:0.00743066 318:-0.0208619 319:-0.0401053 320:0.0380107 321:-0.0743039 322:-0.0595143 323:-0.0636807 324:0.0317657 325:-0.00928714 326:0.0159907 327:0.0115495 328:0.0257807 329:-0.0807305 330:-0.0219233 331:-0.00136698 332:0.0447949 333:0.0168697 334:0.0909088 335:0.0708051 336:-0.0348076 337:0.0126702 338:-0.031092 339:-0.00833554 340:0.0139451 341:-0.0302192 342:-0.00908743 343:0.00349534 344:-0.0674938 345:0.00162027 346:-0.0510406 347:-0.0515014 348:-0.0434272 349:0.00235888 350:0.0917044 351:0.062342 352:0.0200775 353:0.0223147 354:-0.0596569 355:0.0533956 356:0.00271799 357:0.0166146 358:0.0232624 359:-0.0254108 360:0.0333453 361:0.084263 362:-0.0145998 363:0.00708564 364:0.0237121 365:-0.0559909 366:-0.063792 367:0.0878794 368:-0.103522 369:-0.00441521 370:-0.0534666 371:-0.0126281 372:0.0505657 373:0.0237135 374:0.0119199 375:-0.0138023 376:0.0147623 377:-0.0698942 378:0.022966 379:0.0206485 380:0.00590571 381:-0.056065 382:0.00494345 383:0.0391329 384:0.0146352 385:-0.0591458 386:0.0219863 387:-0.0156169 388:0.00275746 389:-0.0281621 390:-0.00702602 391:-0.0111093 392:-0.00327282 393:0.0421662 394:0.00623706 395:-0.00111719 396:-0.00506302 397:0.0457044 398:-0.0197486 399:-0.0277762 400:0.0687669 401:0.0221131 402:0.0185803 403:-0.0477919 404:-0.051874 405:0.0709302 406:-0.0555116 407:0.0390104 408:-0.0331847 409:0.0395494 410:-0.0142137 411:-0.00592768 412:-0.0377191 413:0.0235112 414:-0.0163993 415:-0.0223356 416:-0.0274904 417:0.023666 418:0.00848138 419:-0.00253855 420:0.00988508 421:-0.0683736 422:-0.0522145 423:-0.079418 424:-0.0453534 425:-0.0795831 426:0.038453 427:-0.0704613 428:0.0657654 429:0.0702089 430:0.00818722 431:-0.0883775 432:-0.0101929 433:-0.0233622 434:-0.079176 435:0.0672387 436:0.0272418 437:3.01428e-05 438:0.0356411 439:0.0269862 440:-0.0467891 441:0.00933401 442:0.00259854 443:0.0868744 444:0.0106916 445:-0.0381462 446:-0.00838206 447:0.0296116 448:-0.0269625 449:0.00837346 450:0.0148412 451:0.00210676 452:0.0292381 453:-0.038116 454:-0.0216379 455:-0.00548934 456:-0.106707 457:-0.00392062 458:-0.0841753 459:-0.0532416 460:-0.0202946 461:0.0120064 462:-0.011454 463:0.0200253 464:-0.0239753 465:-0.0248549 466:0.0469822 467:0.0190978 468:0.00261109 469:0.0126015 470:0.0873675 471:-0.0294581 472:0.0893872 473:0.03923 474:-0.0101404 475:0.0513484 476:0.059765 477:-0.0996767 478:-0.0181774 479:0.0166703 480:-0.0716394 481:0.0155015 482:-0.0653449 483:0.0565784 484:-0.0760168 485:0.0637753 486:0.0336234 487:-0.052753 488:-0.0273224 489:0.0475077 490:-0.0639013 491:0.00653816 492:-0.0638857 493:-0.0475149 494:0.0429233 495:0.0113572 496:0.042696 497:-0.0191588 498:0.0192271 499:-0.0218875 500:-0.0562745 501:-0.0266294 502:0.0533581 503:-0.0215294 504:0.000837626 505:0.0217383 506:0.00612205 507:-0.0476723 508:-0.0192481 509:-0.0679729 510:0.0980373 511:-0.0967641 
0.19849630313295005 0 0 0 0 0.07680927288067177 1 0.022776904706884763 0 0.18449168917022546 0 0 0 0:-0.0139107 1:0.00637148 2:0.059665 3:-0.0868036 4:0.0133441 5:0.00101691 6:-0.0415531 7:0.0488301 8:-0.0265497 9:0.0446133 10:-0.02562 11:-0.00206553 12:-0.082343 13:-0.119603 14:0.0810439 15:-0.0646202 16:0.0554774 17:-0.0370417 18:0.027577 19:0.00658132 20:-0.0349241 21:0.00119585 22:-0.000274056 23:0.0091267 24:-0.0393071 25:-0.0727836 26:-0.0943112 27:-0.0176528 28:-0.0145643 29:-0.0772236 30:0.0223889 31:-0.00981065 32:-0.0131984 33:0.120669 34:-0.0606835 35:0.0219974 36:-0.0732584 37:0.0419534 38:-0.0283825 39:-0.000622037 40:-0.0451828 41:-0.000787237 42:-0.0481692 43:-0.021392 44:0.00519871 45:0.0549835 46:-0.0151463 47:-0.0576611 48:-0.0215756 49:0.0985777 50:0.0174653 51:0.0370878 52:-0.016757 53:-0.00150031 54:-0.0531186 55:0.0546161 56:0.0132789 57:-0.0298794 58:0.048883 59:0.00404942 60:-0.0688149 61:0.0376948 62:-0.0112578 63:-0.0101931 64:0.0601147 65:0.0724294 66:0.0794718 67:0.0153137 68:0.0443944 69:0.0321429 70:0.0388567 71:0.0511243 72:0.0307103 73:0.0317178 74:0.00968403 75:-0.0590964 76:0.0125171 77:0.0328174 78:-0.0132186 79:0.0275883 80:0.0138754 81:-0.0461074 82:0.07625 83:0.00564871 84:0.00811948 85:0.0600335 86:0.0756518 87:-0.0791288 88:-0.00543907 89:0.018205 90:0.0610061 91:-0.0721293 92:0.000991473 93:-0.10912 94:-0.032398 95:-0.037806 96:0.0122951 97:-0.00749041 98:0.0228148 99:0.0245033 100:-0.0176932 101:0.0299188 102:0.0233258 103:-0.000508914 104:0.0368062 105:-0.0576968 106:-0.0634942 107:0.0379726 108:0.0023587 109:-0.00943006 110:-0.0317573 111:0.0308242 112:-0.0014425 113:-0.0282677 114:-0.0303703 115:0.0275447 116:-0.0762522 117:-0.000603989 118:-0.0820648 119:-0.01989 120:0.00116307 121:0.0082567 122:0.0639304 123:-0.0439088 124:-0.0608386 125:0.00439777 126:-0.0378539 127:-0.0356539 128:0.0809516 129:0.0202282 130:-0.0194239 131:-0.0321469 132:-0.0366317 133:-0.00684423 134:-0.0567439 135:0.0203858 136:0.0438217 137:-0.015492 138:-0.00935725 139:-0.0309555 140:0.00018243 141:-0.0149087 142:-0.065904 143:-0.0213652 144:0.0270475 145:0.0316348 146:0.0608593 147:-0.0221612 148:0.0224625 149:0.0190889 150:0.0918113 151:-0.0419183 152:0.0108644 153:0.0279265 154:0.0298232 155:-0.0437038 156:0.012986 157:0.0305064 158:-0.0165397 159:0.0180972 160:0.0279938 161:0.0841201 162:0.0325346 163:0.000584407 164:-0.0324038 165:0.00963279 166:0.0188127 167:0.0657484 168:-0.0609858 169:0.0301819 170:-0.0263126 171:-0.023327 172:0.00881412 173:-0.0248186 174:-0.0670575 175:-0.0144338 176:-0.017403 177:-0.0174222 178:-0.0431805 179:-0.0607124 180:0.0133469 181:-0.00803136 182:-0.0278644 183:-0.00168654 184:0.00507302 185:-0.0163173 186:-0.0440813 187:-0.0849803 188:0.0318089 189:-0.0496148 190:-0.0761678 191:0.0082371 192:0.00152201 193:-0.0692502 194:0.063574 195:0.0919548 196:-0.0291596 197:-0.00261994 198:-0.023982 199:-0.0183677 200:-0.0218509 201:-0.00724138 202:0.0230054 203:0.080132 204:-0.0132765 205:0.0105095 206:0.00196799 207:-0.0273183 208:-0.01066 209:0.0307439 210:-0.0476385 211:-0.0168045 212:-0.00233789 213:0.01619 214:-0.004143 215:-0.0506308 216:-0.0989397 217:0.0333237 218:-0.13249 219:0.0461059 220:-0.0111116 221:-0.0286215 222:0.0632495 223:0.000684886 224:-0.0277395 225:-0.00216645 226:0.0319067 227:-0.0102008 228:-0.000319327 229:0.0120331 230:-0.028028 231:-0.0623341 232:0.0767242 233:0.0448437 234:0.0361516 235:0.0365085 236:0.0207111 237:0.00448679 238:0.0218451 239:-0.0220105 240:0.0191617 241:0.0167348 242:0.0542131 243:0.0136818 244:0.117222 245:-0.0193133 246:0.00955503 247:0.0160129 248:0.0245673 249:0.0766572 250:0.0249226 251:0.0725795 252:-0.0220857 253:-0.0161278 254:-0.0308457 255:-0.0510081 256:0.0149103 257:0.0949251 258:-0.0256475 259:0.0604427 260:-0.0330004 261:0.0687729 262:0.0117678 263:-0.0269896 264:0.0250695 265:-0.028211 266:0.0168751 267:-0.022255 268:-0.00152679 269:-0.0312861 270:-0.0307266 271:0.013096 272:0.0222705 273:0.014398 274:-0.00448154 275:0.0275457 276:-0.0490799 277:0.0806655 278:0.0108511 279:0.0169173 280:-0.0823521 281:0.00877882 282:-0.0429893 283:-0.0922467 284:-0.0459104 285:0.0271752 286:-0.0312644 287:0.0451535 288:0.0605032 289:0.0702596 290:-0.00936345 291:0.0270866 292:0.000480346 293:0.089402 294:0.0657387 295:0.0189748 296:-0.00532085 297:0.00781297 298:-0.0877948 299:0.0221332 300:-0.0310048 301:0.101348 302:0.0277139 303:-0.0221821 304:0.0168821 305:-0.0118457 306:0.0272844 307:0.00153846 308:-0.0148955 309:-0.0348911 310:0.0140841 311:0.0585663 312:-0.0668154 313:0.0669307 314:0.0384984 315:0.0104609 316:0.0471917 317:0.0561451 318:-0.0681743 319:0.0167533 320:-0.0121863 321:-0.0478681 322:-0.0637667 323:-0.0297158 324:0.0346139 325:-0.00730508 326:0.00687702 327:-0.00807267 328:0.00338503 329:-0.087048 330:-0.0314561 331:-0.0837431 332:0.0718243 333:0.013533 334:-0.0265892 335:0.0652974 336:0.0150555 337:0.0567536 338:-0.00534303 339:-0.0247461 340:0.0225386 341:0.0103642 342:-0.0489449 343:-0.0175687 344:-0.0104839 345:0.0401306 346:0.00684723 347:-0.0753431 348:-0.100393 349:0.0444622 350:0.0324343 351:0.0989395 352:0.00521136 353:0.0493897 354:0.00196945 355:0.0580097 356:-0.0418996 357:0.0323717 358:0.0447614 359:-0.100947 360:-0.0291226 361:0.00344031 362:-0.0157317 363:-0.0271314 364:0.031287 365:-0.0458654 366:-0.0779443 367:0.100423 368:-0.0498224 369:0.0374473 370:-0.0479332 371:0.0507785 372:0.047472 373:0.0241665 374:0.00421885 375:0.0110189 376:0.0157268 377:-0.0703088 378:-0.057934 379:0.0018781 380:-0.0114581 381:-0.0660735 382:-0.0192667 383:0.021841 384:-0.0883036 385:-0.0327918 386:0.0446655 387:0.00433569 388:0.0497189 389:-0.0348919 390:-0.0257866 391:-0.074511 392:0.051775 393:0.0517262 394:0.00205912 395:0.0125545 396:-0.0089233 397:0.0414822 398:0.0104376 399:-0.0314821 400:0.0354977 401:-0.0345999 402:0.00238814 403:-0.0221121 404:0.0401896 405:0.0153354 406:-0.0424755 407:0.0492474 408:0.0113872 409:-0.0263457 410:0.00270526 411:-0.0192707 412:-0.054234 413:-0.0217662 414:0.027064 415:0.0281112 416:0.0461122 417:-0.0221086 418:-0.0247175 419:-0.0168974 420:0.0543586 421:0.0167804 422:0.0644826 423:-0.00882173 424:-0.0512655 425:-0.015869 426:0.0301433 427:-0.08133 428:-0.0691994 429:0.0356094 430:0.0592788 431:-0.0499866 432:-0.0119908 433:-0.0451467 434:-0.0019759 435:0.0502413 436:0.0272148 437:0.022105 438:0.0253159 439:-0.00238864 440:0.0138183 441:-0.0481602 442:0.0416891 443:0.0432872 444:0.0244316 445:-0.0558836 446:0.0357701 447:0.0924274 448:0.0214451 449:0.0145685 450:-0.00758397 451:0.0558099 452:-0.0366852 453:-0.0152631 454:0.00373822 455:0.0663111 456:-0.0735894 457:0.0380244 458:-0.0834364 459:0.0984166 460:0.0152012 461:0.0510348 462:-0.0534553 463:-0.054907 464:0.00176527 465:-0.104031 466:0.00815579 467:-0.00511306 468:-0.0499758 469:0.0482699 470:0.0553435 471:-0.0461751 472:0.0218306 473:0.0314098 474:-0.0108168 475:0.0840209 476:-0.00905708 477:-0.0683874 478:-0.0689558 479:-0.0535917 480:-0.0792895 481:-0.00683625 482:-0.0580076 483:0.0531655 484:-0.00733504 485:0.0579955 486:0.0553718 487:-0.0970074 488:0.0135505 489:-0.0286967 490:-0.0409717 491:-0.0954881 492:0.0286633 493:-0.0497287 494:0.0106731 495:0.0498559 496:0.0196215 497:-0.0232043 498:-0.0102857 499:-0.00745647 500:-0.0433865 501:-0.0112267 502:0.0132507 503:-0.0117675 504:-0.0375207 505:-0.0244507 506:0.0194022 507:-0.0589201 508:-0.0170065 509:-0.0364929 510:-0.00517235 511:0.0144023 
0 0 0 0 0.31531012750806975 0 0 0 0 0.072257621476046016 0 0 0 0:0.00425512 1:0.0141479 2:0.0241136 3:-0.0659935 4:0.0185063 5:0.000603727 6:-0.00674492 7:0.0535456 8:-0.0194435 9:0.0251308 10:0.0228526 11:-0.0130262 12:-0.0636987 13:-0.092619 14:0.0617506 15:-0.0862551 16:0.0505361 17:-0.0496001 18:0.054737 19:0.031478 20:-0.00357393 21:0.02804 22:0.0171716 23:0.0043941 24:-0.015845 25:-0.0105892 26:-0.135472 27:-0.00658681 28:0.0251429 29:-0.0604898 30:0.0265285 31:0.0283528 32:-0.0379944 33:0.0585012 34:-0.0620001 35:0.0117112 36:-0.102767 37:0.0336748 38:-0.00764051 39:-0.024393 40:0.0396255 41:-0.0262778 42:-0.0553144 43:0.0484234 44:-0.0146201 45:0.0546463 46:0.0145978 47:0.00242462 48:-0.0121233 49:0.151312 50:0.0184488 51:-0.0266681 52:-0.0402765 53:0.00976016 54:-0.0192395 55:0.0532022 56:0.028711 57:-0.102476 58:0.061471 59:0.0209477 60:0.0216722 61:0.0272114 62:-0.0347293 63:-0.0109166 64:0.0863133 65:0.0965406 66:0.0359218 67:-0.0561688 68:0.0606495 69:0.0114384 70:-0.0165039 71:-0.00214159 72:0.0659456 73:0.0402918 74:-0.020717 75:-0.0328289 76:-0.034625 77:0.0245871 78:-0.00853479 79:0.0136081 80:0.0430091 81:-0.0247617 82:0.0733232 83:0.0136372 84:-0.0699625 85:0.0318218 86:0.071767 87:-0.122017 88:-0.0196768 89:0.0225515 90:0.0174306 91:-0.0640884 92:-0.0114 93:-0.083738 94:-0.03073 95:-0.0251292 96:0.00330776 97:0.00743882 98:0.0261544 99:0.0293943 100:-0.0316584 101:-0.0109494 102:-0.0223373 103:0.00442068 104:0.0145967 105:-0.0604114 106:0.00491223 107:-0.00718898 108:-0.0160087 109:-0.0280836 110:-0.0798056 111:-0.0614943 112:0.0163101 113:0.0270388 114:-0.0989219 115:0.0725602 116:-0.0522223 117:-0.0623216 118:0.0125874 119:0.00403755 120:0.077352 121:-0.000443396 122:-0.0278993 123:-0.0471011 124:-0.00388922 125:0.00897266 126:-0.012154 127:-0.00723754 128:0.104007 129:0.0340279 130:-0.0178802 131:-0.0177514 132:0.0102181 133:-0.028609 134:-0.057232 135:0.0537349 136:0.0283319 137:-0.0015418 138:-0.033443 139:-0.0340028 140:0.0323784 141:0.0150085 142:-0.0965598 143:0.033104 144:0.00689986 145:0.0396509 146:0.0310759 147:0.0383101 148:0.0288529 149:0.03348 150:0.0428057 151:-0.0363816 152:0.0387645 153:-0.0156497 154:0.0629423 155:-0.0015526 156:0.00393514 157:0.052488 158:0.0423515 159:-0.0372552 160:-0.00691306 161:0.0401856 162:0.0871319 163:-0.0165124 164:-0.0013112 165:-0.060095 166:-0.0264704 167:0.0563523 168:-0.0294847 169:0.0602404 170:0.0110796 171:-0.0920226 172:0.0460777 173:-0.0438777 174:-0.0554537 175:-0.0233512 176:-0.0147736 177:-0.0150261 178:0.0265012 179:-0.0491555 180:0.0489473 181:-0.0245099 182:0.0509614 183:0.0214717 184:0.0430957 185:-0.0183916 186:-0.0176449 187:-0.0247289 188:0.0260225 189:0.0274486 190:-0.0550382 191:-0.00535314 192:0.0236232 193:-0.0615876 194:0.109718 195:0.04436 196:-0.0109561 197:0.0291265 198:-0.0680853 199:-0.0688972 200:-0.0722688 201:-0.0226989 202:0.0412198 203:0.0901506 204:-0.0541291 205:-0.013151 206:-0.00118871 207:-0.00607 208:0.0150248 209:-0.00115641 210:0.00574934 211:0.0490131 212:0.0358019 213:0.0637263 214:0.025215 215:-0.00477383 216:-0.0432726 217:-0.0296017 218:-0.010576 219:0.0579972 220:-0.00496965 221:-0.0320188 222:-0.00427154 223:-0.0113606 224:-0.0262555 225:-0.0253448 226:0.0470104 227:-0.0700927 228:-0.037559 229:0.0110315 230:-0.0447977 231:0.0486117 232:0.0460841 233:0.0654657 234:0.017161 235:-0.0258714 236:-0.0170586 237:0.000292854 238:0.000129449 239:-0.0239077 240:-0.00794731 241:-0.0275747 242:-0.00732589 243:0.0578461 244:0.0527249 245:-0.0197803 246:-0.0205657 247:0.0234717 248:0.0163967 249:0.0252549 250:0.00932262 251:0.0180797 252:0.0164776 253:-0.0356862 254:-0.019953 255:-0.0212959 256:0.061468 257:0.129635 258:-0.00049904 259:0.0445149 260:-0.0333789 261:0.00278107 262:-0.0136631 263:-0.0392122 264:0.0113796 265:-0.0424577 266:-0.00190902 267:0.0565073 268:0.0652633 269:0.0126684 270:-0.107573 271:-0.0362149 272:-0.048544 273:0.0307186 274:0.0595435 275:-0.0177553 276:-0.0380628 277:0.0671297 278:0.0316179 279:0.00115361 280:-0.0794058 281:-0.0301957 282:-0.052272 283:-0.0509968 284:0.0087439 285:0.0197782 286:-0.0448235 287:0.0463752 288:0.0324362 289:0.0651347 290:0.0241017 291:-0.0107565 292:-0.016014 293:0.0466372 294:0.0733056 295:0.0121055 296:0.068595 297:0.0406125 298:-0.0633805 299:-0.00166786 300:0.0167045 301:0.0966476 302:-0.0176436 303:-0.0297493 304:0.0671486 305:-0.0290762 306:0.0848353 307:0.0202794 308:0.00238863 309:0.0311811 310:0.066488 311:0.00295225 312:-0.0395475 313:0.0490041 314:-0.0254892 315:0.0731382 316:-0.0330057 317:0.0267002 318:-0.00742718 319:-0.0191624 320:0.0262146 321:-0.0886167 322:-0.00197471 323:-0.0180657 324:0.0365692 325:-0.0202266 326:0.0336478 327:-0.0277347 328:0.00926225 329:-0.0308025 330:-0.0296944 331:-0.0471458 332:0.0682856 333:0.0108282 334:-0.00836601 335:0.0443775 336:0.0414733 337:0.0383998 338:-0.0156634 339:-0.0457252 340:0.0468306 341:0.017489 342:-0.017742 343:0.0355618 344:-0.0462625 345:-0.0117255 346:-0.0283635 347:-0.0892475 348:-0.0928165 349:0.0626296 350:0.00319502 351:0.022296 352:0.0335761 353:0.022549 354:-0.0191285 355:0.000674221 356:-0.0269799 357:0.01732 358:0.032083 359:-0.0437958 360:0.00304325 361:0.0695117 362:0.0367076 363:0.0605758 364:0.0462977 365:-0.0367487 366:-0.0396912 367:0.110725 368:-0.0737933 369:0.128596 370:-0.0589573 371:0.0253203 372:0.00865086 373:0.0359526 374:-0.013967 375:-0.00185182 376:-0.008722 377:-0.0416433 378:0.0145437 379:-0.0385921 380:0.0121116 381:-0.0641553 382:-0.00331439 383:0.0102014 384:0.00360317 385:-0.0201821 386:0.0734487 387:0.0107039 388:0.0346435 389:0.0121136 390:0.00197295 391:-0.062515 392:-0.0242452 393:0.0307196 394:-0.0110496 395:0.0514682 396:-0.00889635 397:0.0654621 398:-0.00923048 399:0.0098758 400:0.0562404 401:0.0220842 402:-0.00445763 403:-0.0542912 404:0.0181587 405:0.0907884 406:-0.0344624 407:0.0966303 408:-0.030256 409:0.0217438 410:0.000957447 411:-0.0381775 412:-0.0433342 413:0.0128394 414:0.0180188 415:0.0122202 416:-0.0246873 417:0.0537357 418:-0.015192 419:0.00641218 420:-0.0107713 421:-0.0265815 422:-0.00695269 423:-0.0281271 424:-0.00175205 425:-0.130742 426:0.0276789 427:-0.0893776 428:0.023686 429:0.0629988 430:0.0292967 431:-0.0253659 432:-0.0161017 433:-0.0385006 434:-0.0276305 435:0.0521446 436:-0.00399357 437:0.0266889 438:0.0609629 439:-0.0371653 440:-0.0446032 441:0.0792983 442:0.00627599 443:0.00370435 444:-0.00778028 445:-0.0756086 446:-0.0180394 447:0.0341618 448:0.00453692 449:-0.0388782 450:-0.00259223 451:-0.00580453 452:-0.0174662 453:-0.0083476 454:0.019522 455:-0.0098955 456:-0.080749 457:-0.0114382 458:-0.0723112 459:0.00497761 460:-0.0801138 461:0.0413116 462:-0.0527721 463:0.00722809 464:0.00930456 465:-0.0491094 466:0.0114399 467:0.0425576 468:-0.0724784 469:0.0199304 470:0.0561215 471:-0.0110057 472:0.079389 473:0.0297788 474:0.0277915 475:0.0492607 476:0.00802062 477:-0.0890937 478:-0.0378531 479:-0.0500471 480:-0.0417143 481:0.0209831 482:-0.0396435 483:0.0712535 484:-0.0667996 485:0.0749335 486:0.0576808 487:-0.03527 488:-0.0198459 489:0.0181514 490:-0.0567489 491:0.00809009 492:-0.0383889 493:0.0055059 494:0.0336792 495:0.0196391 496:-0.00213375 497:0.0174033 498:-0.0005269 499:-0.0387393 500:-0.0367319 501:0.0358219 502:0.0501115 503:-0.0430565 504:0.0332076 505:0.016314 506:-0.00576601 507:-0.0671463 508:0.00596277 509:-0.097266 510:0.0718448 511:-0.0589257 
0 0 0 0 0 0 0 0 0.33323233013875175 0 0 0 0 0:0.0158699 1:-0.0388353 2:-0.00224871 3:-0.0377751 4:0.0473547 5:-0.00791895 6:0.00299495 7:-0.0111557 8:-0.0129429 9:-0.0288654 10:0.0136872 11:-0.081778 12:-0.0343295 13:-0.0978969 14:0.00246744 15:-0.0514547 16:0.0486795 17:-0.056943 18:0.0245314 19:0.027288 20:0.00166722 21:-0.0134575 22:-0.0102747 23:-0.00169327 24:-0.0306113 25:-0.0168815 26:-0.0990554 27:-0.0593744 28:-0.0509237 29:0.0146153 30:0.00393477 31:-0.0263024 32:-0.0322032 33:0.0218323 34:-0.0590254 35:0.0209176 36:-0.112548 37:-0.0233617 38:-0.0370267 39:-0.0441149 40:0.0213816 41:-0.0647008 42:-0.0920466 43:0.0146112 44:0.000729938 45:0.0256485 46:0.0120842 47:0.0158073 48:-0.021213 49:0.112243 50:0.0149408 51:-0.0333368 52:-0.0224479 53:-0.0154591 54:-0.010276 55:0.0286032 56:-0.0584266 57:-0.0696535 58:0.0954325 59:0.0307766 60:0.0678173 61:-0.00868829 62:-0.0110371 63:-0.00900281 64:0.0672295 65:0.0423345 66:-0.00676413 67:-0.0106748 68:0.0198885 69:0.00303997 70:-0.00344505 71:0.0380754 72:0.0174398 73:0.0157457 74:-0.021794 75:-0.0421774 76:-0.00560299 77:0.0700603 78:-0.0140602 79:0.016736 80:0.0456189 81:-0.00748934 82:0.0366394 83:-0.0184748 84:-0.0273129 85:0.0317972 86:0.0408085 87:-0.0913327 88:-0.0400901 89:-0.0306012 90:-0.0110024 91:-0.076505 92:-0.0942237 93:-0.0263551 94:-0.0573215 95:-0.0468744 96:-0.000862227 97:0.0864903 98:0.0310337 99:0.0259718 100:-0.0259494 101:-0.0171906 102:0.0125962 103:-0.00740668 104:0.026692 105:-0.0221389 106:0.024573 107:0.0233905 108:-0.02215 109:0.0122632 110:-0.066546 111:-0.0503225 112:-0.0237814 113:-0.00409984 114:-0.0495094 115:0.0416663 116:-0.0490607 117:-0.0122869 118:-0.0102438 119:0.00668959 120:0.0119152 121:-0.00114093 122:-0.000789585 123:-0.107705 124:0.00522893 125:-0.0107913 126:0.00591034 127:-0.0421348 128:0.0805463 129:0.0706642 130:-0.0233866 131:0.0100869 132:-0.0823007 133:-0.0231594 134:-0.0554025 135:0.041331 136:0.0321335 137:-0.0154168 138:-0.0516821 139:-0.0482269 140:0.0549101 141:0.0215947 142:-0.0806046 143:0.00984018 144:-0.0146559 145:0.118842 146:0.00899336 147:0.0284389 148:0.0106854 149:0.0122061 150:0.0545952 151:0.0402417 152:0.0311118 153:-0.0182505 154:0.0898082 155:0.0375495 156:-0.0133851 157:0.0166002 158:0.020771 159:-0.0778654 160:-0.0383975 161:0.0282178 162:0.113921 163:-0.00289593 164:-0.00503758 165:-0.0909444 166:-0.0186237 167:0.0111794 168:-0.0454682 169:-0.015602 170:-0.0221679 171:-0.0144008 172:-0.0269154 173:-0.0186645 174:-0.0504272 175:-0.0155235 176:0.0407554 177:0.0182024 178:0.0283653 179:-0.0781282 180:0.0370714 181:-0.0727264 182:0.0458741 183:0.0183311 184:0.0370649 185:-0.0566923 186:-0.00443196 187:-0.000233428 188:0.0519128 189:0.0153117 190:-0.0385937 191:0.0398126 192:-0.00216945 193:0.0239415 194:0.0882634 195:0.0252663 196:-0.0244786 197:-0.0333531 198:-0.0350587 199:-0.0404009 200:0.0384163 201:0.00758336 202:0.019738 203:0.0966225 204:-0.0207475 205:0.0221927 206:-0.0125826 207:0.0033775 208:0.0730077 209:-0.0125254 210:-0.0094309 211:0.0353322 212:0.0633613 213:0.00283223 214:0.0155069 215:-0.0560765 216:-0.0487376 217:-0.0830012 218:0.0216985 219:-0.0264823 220:0.00362982 221:-0.0235932 222:-0.0263549 223:-0.0145778 224:0.0196468 225:-0.0337348 226:-0.0107287 227:-0.0128517 228:0.0174661 229:0.023111 230:-0.03698 231:0.0431732 232:0.0439415 233:0.110913 234:0.0106326 235:-0.0320823 236:-0.0115631 237:0.00926008 238:0.0166707 239:0.00588803 240:0.0157533 241:0.0513724 242:-0.0158841 243:0.0194581 244:0.036423 245:-0.03414 246:-0.0409181 247:0.0731183 248:0.0158722 249:0.0309958 250:-0.0501745 251:0.00481297 252:0.0235258 253:-0.00426938 254:-0.0137836 255:0.031503 256:0.0503239 257:0.114947 258:0.0203864 259:0.0862063 260:-0.0040672 261:-0.0333707 262:0.0274657 263:-0.0173217 264:0.0133784 265:0.0166753 266:0.011275 267:0.0538874 268:0.0166601 269:0.0377052 270:-0.0694674 271:-0.0186575 272:-0.0148986 273:-0.0131145 274:0.00673052 275:0.0128879 276:0.0190265 277:0.0534798 278:0.0457156 279:-0.00226807 280:-0.0435305 281:0.0133117 282:-0.106061 283:-0.0420811 284:0.0526239 285:0.0279644 286:-0.0390057 287:0.0628163 288:-0.0161142 289:0.0400108 290:0.0795403 291:-0.0324977 292:-0.025125 293:0.0269221 294:0.0108385 295:-0.00162714 296:0.0887318 297:0.0623203 298:-0.018657 299:0.0149431 300:0.0429332 301:0.0303068 302:-0.0654176 303:0.0179359 304:0.0601447 305:-0.0493134 306:0.0773345 307:0.00467521 308:0.0603494 309:0.00973605 310:0.0755834 311:0.0156493 312:-0.017699 313:0.0735925 314:-0.0418804 315:0.0796904 316:-0.0193103 317:-0.0149385 318:0.00365369 319:-0.0586142 320:-0.0128471 321:-0.0916078 322:-0.0521429 323:-0.0313308 324:0.0423625 325:0.00146071 326:-0.000953672 327:-0.00772162 328:0.0798694 329:-0.0459314 330:-0.048765 331:-0.0565552 332:0.0543619 333:0.0215024 334:0.0194266 335:-0.00639317 336:-0.00921671 337:0.0418656 338:-0.0518114 339:-0.0167845 340:0.0320072 341:0.0182067 342:-0.000227197 343:0.0649429 344:-0.00266737 345:-0.016125 346:-0.0763567 347:-0.049368 348:-0.0770279 349:0.0413945 350:-0.0279274 351:0.0195825 352:0.0208125 353:-0.00148416 354:-0.0593189 355:0.0805929 356:0.0172692 357:-0.0387474 358:0.0161301 359:-0.0292816 360:0.0396088 361:0.0868405 362:0.0363951 363:0.00670618 364:0.0557353 365:0.00228428 366:-0.05207 367:0.125835 368:-0.0774107 369:0.0351545 370:-0.0613578 371:0.0183218 372:0.0152839 373:0.055811 374:0.00376915 375:-0.00150032 376:0.0112075 377:-0.0102399 378:0.0680987 379:0.020649 380:-0.021779 381:-0.0700052 382:-0.0278553 383:0.0331572 384:0.0370402 385:-0.00440106 386:0.0918731 387:0.00549474 388:0.01018 389:0.00537027 390:0.0148375 391:-0.0540412 392:-0.0445213 393:0.0489799 394:-0.007558 395:0.00466211 396:-0.0319497 397:0.0270671 398:-0.0363445 399:-0.00683056 400:0.0854569 401:0.0165701 402:0.0506608 403:-0.0170034 404:-0.0112006 405:0.0915512 406:-0.0482665 407:0.112414 408:-0.0369293 409:0.0697354 410:-0.0305608 411:-0.0665171 412:-0.0359734 413:0.0228819 414:-0.0434325 415:0.00811812 416:-0.0548429 417:-0.00677401 418:0.0233 419:0.00794426 420:0.0154825 421:-0.0763785 422:-0.0600731 423:-0.0177899 424:0.00981184 425:-0.0806762 426:0.0455535 427:-0.0713815 428:0.00965318 429:0.043114 430:-0.00978716 431:-0.0714911 432:-0.00585431 433:-0.0242061 434:-0.120127 435:0.0306331 436:-0.00281813 437:0.0403951 438:0.00409769 439:-0.0331252 440:-0.0515666 441:0.0601983 442:-0.0143528 443:0.0154962 444:-0.0270281 445:-0.0451669 446:-0.0398971 447:-0.00199156 448:-0.0372469 449:-0.0223616 450:-0.00398952 451:0.00980361 452:-0.00743638 453:-0.0314756 454:-0.0230889 455:0.0214739 456:-0.111919 457:-0.0081778 458:-0.0534627 459:-0.012438 460:-0.103804 461:0.0244131 462:0.0103404 463:0.0679972 464:0.000106087 465:-0.0287477 466:0.00662693 467:-0.0330546 468:-0.032093 469:0.0314358 470:0.100332 471:-0.00866276 472:0.0669304 473:0.0215907 474:0.0194252 475:0.0397165 476:0.0440076 477:-0.0793156 478:-0.0302209 479:-0.0488777 480:-0.0568372 481:-0.00644217 482:-0.0416486 483:0.0320339 484:-0.0979457 485:0.0347391 486:0.0224766 487:-0.00426487 488:-0.0308966 489:-0.00453604 490:-0.0865905 491:0.0297836 492:-0.0810353 493:-0.0443188 494:0.0601766 495:0.0229271 496:0.0286419 497:0.00769508 498:-0.00121322 499:-0.046427 500:0.0111437 501:-0.00565117 502:0.0672137 503:-0.0398879 504:0.024305 505:0.00975188 506:-0.00867468 507:-0.00206107 508:-0.0318781 509:-0.0710605 510:0.071586 511:-0.112589 
0 0 0 0.11305647573745657 0 0 0.64400571624937586 0 0 0.032324691075552719 0 0 0 0:0.0102793 1:-0.0360746 2:0.00218185 3:-0.0763528 4:-0.0602711 5:0.0896601 6:0.027712 7:0.0660795 8:-0.0525388 9:-0.0196867 10:-0.00828517 11:-0.0294632 12:-0.0322937 13:-0.0440484 14:0.000881059 15:-0.0897511 16:0.0183389 17:-0.0171408 18:0.00256925 19:0.0768875 20:0.0102504 21:-0.0470398 22:-0.00784865 23:-0.00778846 24:0.0291337 25:-0.0028073 26:-0.0104412 27:-0.0443517 28:-0.0456106 29:-0.036208 30:0.00275855 31:-0.039486 32:-0.012881 33:0.0780528 34:-0.0538267 35:0.0453638 36:-0.0893974 37:0.00410598 38:0.00294151 39:-0.0106328 40:0.0366573 41:-0.0284934 42:-0.137653 43:-0.0140795 44:0.005805 45:0.0281651 46:0.00237598 47:-0.00892776 48:-0.00343562 49:0.0473704 50:0.0570646 51:-0.0788778 52:0.0361071 53:-0.00146424 54:-0.0522281 55:0.0422263 56:-0.0501229 57:-0.00629081 58:0.0576458 59:0.0470767 60:0.0417596 61:-0.053822 62:0.0262798 63:-0.0181992 64:0.0420796 65:-0.0235129 66:-0.0083335 67:-0.00989346 68:-0.00491313 69:-0.0119358 70:0.0276924 71:0.0426085 72:0.0443606 73:0.0797833 74:-0.0220893 75:-0.0781552 76:-0.0226065 77:0.0920129 78:-0.029224 79:-0.0267342 80:0.0273015 81:0.0218346 82:-0.00693656 83:-0.0159932 84:-0.0942103 85:-0.00609508 86:0.0922149 87:-0.0732475 88:-0.010293 89:0.0158462 90:-0.00323779 91:-0.0635854 92:-0.0359778 93:-0.0185032 94:-0.045159 95:-0.04086 96:0.0208917 97:0.133812 98:0.0378751 99:0.0320602 100:-0.0314518 101:-0.0552318 102:-0.00191996 103:0.0148794 104:0.00669288 105:-0.0186713 106:0.0391585 107:0.0900617 108:-0.0235422 109:-0.0593731 110:-0.0529514 111:-0.0249203 112:0.0010401 113:-0.00272363 114:-0.0896691 115:0.0215411 116:-0.106637 117:-0.00885482 118:0.0227333 119:0.0550353 120:0.0215888 121:-0.0148582 122:-0.0395276 123:-0.0282859 124:-0.0165546 125:-0.00208847 126:-0.0251044 127:-0.104321 128:0.0522859 129:0.0423998 130:-0.00128024 131:0.00989026 132:-0.0125194 133:0.0010144 134:-0.0514491 135:0.0655484 136:-0.0601428 137:-0.0263376 138:-0.027731 139:-0.0362237 140:0.0263876 141:-0.0275361 142:-0.0701946 143:-0.0608729 144:0.0186001 145:0.0690184 146:0.0350861 147:0.000879405 148:0.0487795 149:-0.0281016 150:0.0744687 151:0.128905 152:0.0547884 153:-0.085865 154:0.0229453 155:-0.0547446 156:0.0264462 157:-0.0359491 158:0.0124784 159:-0.0523715 160:-0.0550661 161:0.0432309 162:0.074725 163:-0.00352586 164:-0.00962325 165:-0.0697935 166:-0.0202418 167:0.042145 168:-0.00674221 169:0.0741966 170:-0.070955 171:0.0212023 172:-0.00771818 173:-0.0504219 174:-0.015974 175:-0.037951 176:0.0494114 177:-0.03053 178:0.0517142 179:-0.0612366 180:0.0279936 181:-0.0869561 182:0.024744 183:0.0020057 184:0.00213856 185:-0.0252929 186:0.00281313 187:0.00995225 188:0.0568039 189:-0.0280265 190:-0.00301545 191:0.0509195 192:0.0574498 193:-0.0683009 194:-0.0108034 195:0.0388295 196:-0.00501433 197:-0.026559 198:-0.0597719 199:-0.0818205 200:0.0581869 201:6.08929e-06 202:0.0421745 203:0.0276351 204:-0.00872683 205:-0.0257138 206:-0.0856556 207:-0.00978059 208:0.0419356 209:0.0426967 210:0.0144235 211:-0.0283306 212:-0.0404272 213:0.042418 214:-0.00392021 215:-0.0616329 216:-0.109637 217:-0.0644328 218:0.0755443 219:0.0254129 220:-0.0455713 221:0.00819097 222:-0.0243598 223:0.0155353 224:-0.0414568 225:-0.0573678 226:-0.00325606 227:0.0479897 228:0.0813683 229:0.0396308 230:0.00624704 231:-0.0369701 232:0.106843 233:0.0813013 234:0.0329834 235:-0.0618713 236:0.0218619 237:0.0167624 238:-0.032917 239:-0.00453131 240:0.0259552 241:0.0154746 242:0.0181141 243:0.0513497 244:0.0658462 245:-0.00986919 246:-0.0722812 247:0.0311783 248:-0.00272244 249:0.0433035 250:-0.0228814 251:-0.00941074 252:0.041296 253:-0.0436066 254:0.0363 255:0.0115872 256:-0.0110914 257:0.138129 258:0.0424893 259:0.0801654 260:0.0020318 261:-0.0376162 262:0.0190694 263:-0.0253043 264:-0.0128464 265:-0.00439489 266:0.0157388 267:0.0288757 268:0.0517329 269:0.0272429 270:-0.0554752 271:-0.0250169 272:-0.0293082 273:-0.0683381 274:0.0227505 275:-0.020732 276:-0.0211703 277:-0.00401978 278:0.0463795 279:0.0408576 280:-0.060405 281:0.0507657 282:-0.0260321 283:-0.0180214 284:-0.0168308 285:0.0681374 286:-0.027904 287:-0.0212079 288:0.0745131 289:0.0389688 290:0.0302494 291:0.0206807 292:0.0191625 293:0.0472428 294:-0.00528483 295:0.0684321 296:0.0946443 297:-0.0246802 298:-0.0128813 299:0.000890747 300:-0.0183143 301:0.0374853 302:-0.0447925 303:0.0151702 304:0.0912659 305:-0.0641677 306:0.0996624 307:0.0235296 308:0.024381 309:0.0252159 310:0.0985613 311:-0.021278 312:-0.00285982 313:0.0403997 314:-0.0134081 315:0.0616903 316:0.0113903 317:0.000410776 318:0.0284603 319:-0.0511495 320:0.0211234 321:-0.0769926 322:0.00461139 323:0.034652 324:0.0316299 325:-0.00936092 326:0.00416235 327:-0.00759256 328:0.0213019 329:-0.0934315 330:-0.0505076 331:-0.0304211 332:-0.0210221 333:0.000872437 334:-0.0126129 335:0.00330476 336:0.0532606 337:0.0134066 338:-0.0101713 339:0.0177943 340:-0.000400401 341:0.0423458 342:-0.00205541 343:-0.0145885 344:0.0321185 345:-0.019779 346:-0.0270602 347:-0.0167767 348:-0.00113923 349:0.0738904 350:0.000763546 351:0.0291019 352:-0.0237032 353:0.000736395 354:0.00282245 355:0.0567522 356:0.0117264 357:-0.00499998 358:0.00834261 359:-0.0085749 360:-0.0139173 361:0.0660865 362:0.0468807 363:0.034177 364:0.00676145 365:-0.0434487 366:0.00287968 367:0.114931 368:-0.00993865 369:0.0764091 370:-0.0511038 371:0.0285944 372:-0.0216545 373:0.0314661 374:0.00407675 375:-0.0333641 376:-0.0344572 377:-0.0214267 378:0.00933449 379:-0.00623163 380:-0.018071 381:0.0241836 382:0.0451046 383:0.0157992 384:-0.0126489 385:0.00490337 386:-0.000930382 387:0.00625435 388:0.0340911 389:0.0690106 390:0.0168655 391:0.0523014 392:0.0682952 393:0.0542178 394:-0.0228199 395:-0.0173051 396:-0.0380251 397:0.0590733 398:0.00265295 399:0.0291283 400:0.0320811 401:-0.0281702 402:0.00164031 403:-0.0396669 404:0.00754832 405:0.0412722 406:-0.00830556 407:0.0888633 408:-0.0166476 409:0.0158432 410:0.0185093 411:-0.0467039 412:-0.0404154 413:-0.0335547 414:0.0415922 415:-0.00509466 416:-0.018692 417:0.0103534 418:-0.00432244 419:-0.0303737 420:0.0330513 421:-0.0601494 422:-0.0142339 423:-0.0809779 424:-0.0602709 425:-0.0574108 426:-0.0164152 427:-0.0629594 428:0.0125876 429:0.00609919 430:-0.0375487 431:-0.0646747 432:-0.00286618 433:0.00339864 434:-0.0839339 435:0.000379707 436:0.0146797 437:0.0264856 438:-0.00612771 439:-0.0191359 440:-0.00461193 441:0.0131473 442:-0.0324036 443:0.0162545 444:0.0398126 445:-0.0615879 446:0.0107557 447:-0.0170028 448:-0.0233847 449:0.0232801 450:-0.00607844 451:-0.0254281 452:-0.0167992 453:0.0275906 454:0.0197981 455:0.0509184 456:-0.0641754 457:-0.0462462 458:-0.0740016 459:-0.0573389 460:-0.019188 461:0.0133287 462:0.0377693 463:0.0287823 464:0.0364704 465:-0.0937695 466:0.0472378 467:0.053854 468:-0.00917751 469:0.0654501 470:0.03873 471:-0.0422747 472:0.0614026 473:0.0311857 474:0.0271323 475:0.0526576 476:0.018804 477:-0.0578214 478:0.00847914 479:-0.0783351 480:-0.0706533 481:0.0365412 482:-0.0261906 483:0.00861213 484:-0.0339589 485:-0.00256523 486:0.0324304 487:-0.0355291 488:-0.00230782 489:0.0107974 490:-0.00637719 491:-0.0083523 492:-0.106261 493:0.0436972 494:0.0694243 495:-0.00615581 496:0.00572766 497:-0.0435691 498:-0.0161173 499:-0.0468919 500:0.0313395 501:0.062725 502:0.027518 503:-0.0487363 504:0.0274854 505:-0.0485166 506:-0.0661017 507:-0.0426691 508:-0.0194856 509:-0.113547 510:0.013626 511:-0.13338 
0 0 0 0.15609712659933089 1 0 0 0 0 0 0 0 0 0:0.0636613 1:-0.0240856 2:-0.00322474 3:-0.0749562 4:0.0532374 5:-0.0375597 6:0.0413302 7:-0.00832753 8:0.0543651 9:-0.0034359 10:0.00560777 11:-0.121114 12:-0.0722321 13:-0.0307928 14:-0.0616826 15:-0.0249571 16:0.0121545 17:-0.0497521 18:-0.00968858 19:0.00761783 20:0.0200413 21:-0.0141652 22:-0.0222828 23:-0.011605 24:0.0111536 25:0.0413323 26:-0.064326 27:-0.0628393 28:-0.0773196 29:0.0479182 30:-0.000362947 31:-0.0495933 32:-0.0141762 33:0.0426071 34:-0.0350555 35:0.0292144 36:-0.0806402 37:-0.0555064 38:0.0114025 39:0.0142639 40:0.0265609 41:-0.0591311 42:-0.0496111 43:0.0401003 44:0.0154677 45:0.0343299 46:-0.0204535 47:0.0165463 48:-0.0084989 49:0.0830539 50:0.0488056 51:-0.085123 52:-0.00123999 53:0.0200996 54:-0.0425015 55:0.0173075 56:-0.0454664 57:-0.0429935 58:0.0741976 59:0.0804367 60:0.0562089 61:-0.0560188 62:-0.00206617 63:0.00548484 64:0.0805553 65:0.0193417 66:-0.0419474 67:-0.0562996 68:0.0148716 69:0.0316043 70:0.0530779 71:0.0554176 72:0.0584269 73:0.0510314 74:-0.0503166 75:-0.0581587 76:-0.0159683 77:0.0160817 78:-0.0261962 79:-0.0211068 80:0.0255442 81:0.0201391 82:-0.0213157 83:0.00995245 84:0.00239501 85:0.0419701 86:0.0847686 87:-0.144653 88:-0.00172445 89:0.0206893 90:-0.0227439 91:-0.0608189 92:-0.0385258 93:-0.041916 94:-0.029034 95:-0.06601 96:-0.0364993 97:0.0887459 98:0.0607053 99:0.060708 100:-0.0384744 101:-0.0140099 102:0.0268094 103:-0.0103585 104:0.0637325 105:-0.0175059 106:0.00144184 107:0.0942691 108:-0.0265514 109:-0.00111312 110:-0.0293269 111:0.00999971 112:-0.0982531 113:-0.0287329 114:-0.0756769 115:0.00336617 116:-0.0510066 117:0.0135184 118:-0.00212461 119:-0.0384077 120:0.0070774 121:-0.0159008 122:-0.0426312 123:-0.0377034 124:-0.0221157 125:0.0364997 126:0.0508981 127:-0.0875178 128:0.0601054 129:-0.0213275 130:0.00737718 131:0.0261688 132:-0.038544 133:-0.0212386 134:-0.0303581 135:-0.0705004 136:0.0189097 137:0.00526075 138:-0.0484684 139:-0.0463424 140:0.0701919 141:0.00489255 142:-0.0458729 143:0.0320404 144:-0.0121853 145:0.122209 146:0.0325393 147:0.00567788 148:-0.00530552 149:0.00761011 150:0.0358814 151:0.0556609 152:0.0124491 153:-0.0324947 154:0.105861 155:0.0168103 156:-0.0087819 157:-0.0229052 158:-0.0158396 159:-0.063741 160:-0.0309692 161:0.0144451 162:0.119691 163:0.0128184 164:0.00796506 165:-0.0580003 166:0.014914 167:0.0465588 168:-0.0502594 169:0.0365744 170:-0.0848474 171:-0.078333 172:0.0075821 173:-0.045232 174:-0.0307671 175:-0.0197704 176:0.00316388 177:-0.00696486 178:0.0731706 179:-0.0432793 180:0.0154604 181:-0.0689467 182:0.0046422 183:-0.0224588 184:-0.0591727 185:-0.0198349 186:0.013158 187:0.0200272 188:0.041019 189:0.0225112 190:0.00102906 191:0.0553586 192:0.00462032 193:0.0253613 194:0.0277596 195:0.0433074 196:-0.000228957 197:-0.0515197 198:-0.00109715 199:-0.0332139 200:0.0149415 201:-0.0222418 202:0.0342681 203:0.0576768 204:0.0288855 205:0.0367596 206:-0.00201575 207:0.0097673 208:0.0462389 209:0.0236713 210:-0.0362295 211:0.027131 212:0.035062 213:-0.0111131 214:-0.0149121 215:-0.07807 216:-0.0172096 217:-0.00504086 218:0.0143527 219:0.0155467 220:-0.00641808 221:0.0147398 222:-0.0960707 223:0.000793403 224:0.0235397 225:-0.00387885 226:-0.0429473 227:-0.0378904 228:0.00516983 229:0.0277299 230:-0.0337221 231:0.00340158 232:0.0430198 233:0.13598 234:0.011993 235:-0.00715634 236:0.000801881 237:-0.0034321 238:0.00815334 239:-0.0650751 240:0.0261083 241:0.0640865 242:-0.0321978 243:-0.00778144 244:0.0521029 245:0.00998483 246:-0.0508267 247:0.0423979 248:0.0466991 249:0.00159877 250:-0.0483138 251:-0.023033 252:-0.0166188 253:0.0292646 254:0.00778948 255:0.00522183 256:-0.0078364 257:0.104115 258:0.0123157 259:0.0991315 260:-0.0254038 261:-0.022923 262:0.0325083 263:0.0320564 264:0.00960593 265:0.00792341 266:0.0336827 267:0.0246078 268:-0.0128689 269:0.020043 270:-0.0495479 271:-0.000591715 272:0.00183449 273:-0.0239939 274:0.0468413 275:-0.00340756 276:0.00640057 277:0.0580129 278:0.025311 279:0.0303948 280:-0.03773 281:0.0160116 282:-0.00756873 283:-0.0706714 284:0.0352325 285:0.0133524 286:-0.0461599 287:0.0315712 288:-0.0603543 289:0.00960338 290:0.0755505 291:0.0246974 292:-0.0228694 293:-0.00128543 294:0.00603951 295:0.00766424 296:0.0700616 297:0.000799131 298:-0.0477826 299:0.0107875 300:0.0317447 301:0.0106452 302:-0.0353835 303:0.0416255 304:0.0387859 305:-0.059605 306:0.0588387 307:-0.0249775 308:-0.0190416 309:-0.035426 310:0.110817 311:0.0168075 312:-0.0480659 313:0.0261616 314:0.0362773 315:0.0801431 316:0.0405253 317:-0.0019548 318:-0.0103701 319:-0.0281876 320:-0.0158776 321:-0.0668026 322:-0.0596853 323:-0.0181045 324:0.0338056 325:0.0200207 326:-0.0063704 327:-0.0302142 328:0.0384966 329:-0.0346214 330:-0.0397289 331:-0.0477193 332:0.0723421 333:-0.00247838 334:0.00806034 335:0.0657739 336:0.0290895 337:0.0295899 338:-0.0129179 339:0.0176206 340:0.0245475 341:-0.0281612 342:0.0570557 343:0.0436843 344:0.0299936 345:0.0228236 346:-0.0470991 347:-0.0593022 348:-0.0277296 349:0.0365187 350:-0.0101339 351:0.0388356 352:0.0587816 353:0.0457835 354:-0.023094 355:0.0649185 356:0.0269953 357:-7.81482e-05 358:0.0111103 359:0.0256396 360:-0.0350327 361:0.0417019 362:0.00729571 363:-0.0232251 364:0.0141045 365:0.026035 366:-0.0384383 367:0.12153 368:-0.0344697 369:0.0335456 370:-0.0411333 371:0.0324701 372:0.0319065 373:0.0255933 374:0.0107821 375:0.00415091 376:-0.0588711 377:-0.0219874 378:0.0589198 379:0.0393784 380:0.0107086 381:-0.0455134 382:0.0179287 383:-0.0320233 384:0.0632128 385:-0.0313069 386:0.0353045 387:0.00366696 388:-0.0155872 389:0.015998 390:0.00368363 391:0.0386895 392:-0.0222694 393:0.041778 394:-0.0259287 395:-0.0132151 396:-0.00143937 397:0.0864619 398:-0.0432703 399:-0.00167981 400:0.0532935 401:0.0180388 402:0.0502299 403:-0.000451086 404:-0.00995355 405:0.136263 406:-0.0582305 407:0.08606 408:0.0330772 409:0.040725 410:-0.0209087 411:-0.00702035 412:-0.00152644 413:0.0455027 414:-0.0512616 415:-0.0223468 416:-0.0466543 417:-0.00102922 418:0.0320724 419:-0.0263569 420:-0.00116568 421:-0.0250638 422:-0.0888147 423:-0.0343781 424:0.0392553 425:-0.0528314 426:0.0193334 427:-0.0465629 428:0.0212301 429:0.025323 430:0.00173287 431:-0.0569666 432:-0.036473 433:0.0197712 434:-0.101825 435:0.0247154 436:0.0365079 437:0.0438156 438:0.0454042 439:-0.0258102 440:-0.00863314 441:0.0242996 442:-0.018374 443:0.0301562 444:0.0297786 445:-0.0907995 446:-0.083804 447:-0.0111782 448:-0.0828362 449:0.00805746 450:-0.0480009 451:-0.00767906 452:-0.0383952 453:-0.0560149 454:-0.061213 455:0.0310221 456:-0.124993 457:-0.0935316 458:-0.0594041 459:-0.0419054 460:-0.027752 461:-0.0129687 462:0.0203331 463:0.0246265 464:-0.0467978 465:-0.0396629 466:0.0631623 467:0.0257209 468:-0.00177062 469:-0.00426032 470:0.0865584 471:-0.0267026 472:0.104302 473:0.0223262 474:-0.00447953 475:0.0068996 476:0.00324248 477:-0.0786576 478:-0.0275039 479:-0.0257873 480:-0.079615 481:0.0590953 482:-0.0806646 483:0.0415604 484:-0.0628643 485:0.0383924 486:0.0273969 487:-0.0502105 488:-0.0361903 489:-0.0406928 490:-0.0751121 491:0.0123366 492:-0.10783 493:-0.0149598 494:0.0412271 495:0.0638595 496:0.0246286 497:-0.0486769 498:-0.00194136 499:0.0161236 500:0.0182799 501:-0.0150548 502:0.0657335 503:-0.0483415 504:0.0448617 505:0.0122926 506:-0.0225193 507:0.00293539 508:-0.0196245 509:-0.0798777 510:8.2733e-05 511:-0.108044 
0 0 0 0 0 0 0 0 0 0 0 0 0.11393661878632859 0:0.0134294 1:0.00208598 2:0.0296762 3:-0.0769121 4:-0.0671866 5:0.0349695 6:0.0293593 7:0.0469539 8:-0.0239244 9:0.00147345 10:-0.0381853 11:-0.00756279 12:-0.00867008 13:-0.0725153 14:0.0327677 15:-0.0899018 16:0.0338663 17:-0.0137733 18:0.0367292 19:0.0196458 20:0.040711 21:-0.0111906 22:-0.00987034 23:0.00878856 24:-0.0163858 25:-0.0440274 26:-0.0997343 27:-0.073318 28:-0.0563084 29:-0.0541971 30:0.05537 31:-0.0241556 32:-0.0148779 33:0.0717226 34:-0.0544587 35:0.0404784 36:-0.10067 37:0.0514852 38:0.0297198 39:-0.0208295 40:0.011341 41:-0.0329935 42:-0.0830816 43:-0.00406457 44:-0.0124226 45:0.0362044 46:-0.0191454 47:0.0132218 48:0.0275017 49:0.0908818 50:0.0577332 51:-0.077896 52:0.0493085 53:-0.0435468 54:-0.0674385 55:0.0422027 56:-0.0364432 57:0.00145555 58:0.0603022 59:0.0155928 60:0.00833607 61:-0.0679805 62:0.0144522 63:-0.00786624 64:0.0728322 65:0.0040255 66:0.0440614 67:-0.0515123 68:0.0175173 69:-0.0109272 70:0.040143 71:0.0782014 72:0.0409875 73:0.0147143 74:0.0305051 75:-0.0936313 76:-0.0290448 77:0.0945341 78:-0.0200725 79:-0.0101787 80:0.0551605 81:0.0355682 82:0.0523316 83:-0.0174586 84:-0.0603313 85:0.0176752 86:0.0966308 87:-0.0958497 88:-0.0390892 89:0.0308968 90:0.0275636 91:-0.085993 92:-0.0542079 93:-0.0318892 94:-0.0663749 95:-0.0824349 96:-0.000959969 97:0.0563221 98:0.0336453 99:0.0125485 100:0.00347194 101:-0.071495 102:0.0324945 103:-0.0165852 104:-0.0320362 105:-0.0581626 106:0.0377781 107:0.0855505 108:-0.0306073 109:-0.0183205 110:-0.0488314 111:-0.00888149 112:0.0124247 113:0.0107055 114:-0.0449868 115:0.0381496 116:-0.103786 117:-0.027164 118:0.0211166 119:0.00433053 120:0.00127174 121:-0.0158666 122:-0.0295631 123:-0.0236351 124:-0.0294668 125:0.0197538 126:-0.00233963 127:-0.0859571 128:0.0554764 129:0.00220017 130:-0.0224908 131:-0.0152365 132:0.0365919 133:-0.000560661 134:-0.0686079 135:0.0770431 136:-0.0318072 137:-0.0558398 138:0.0232648 139:-0.0267214 140:0.00395698 141:-0.0224221 142:-0.125273 143:-0.0354541 144:0.0372665 145:0.0103958 146:0.0394898 147:0.013114 148:0.0467185 149:-0.00839509 150:0.0841328 151:0.054068 152:0.0513003 153:-0.106831 154:-0.00359969 155:-0.0534372 156:0.00553199 157:0.0227603 158:0.00526367 159:-0.047158 160:-0.0570191 161:0.0852819 162:0.0476907 163:0.0267483 164:0.00702823 165:-0.0214536 166:-0.0040055 167:0.0625246 168:0.00513272 169:0.0387813 170:-0.0257692 171:0.00797275 172:-0.00554615 173:-0.11431 174:-0.0141582 175:0.0180679 176:-0.00794537 177:-0.00988067 178:0.0665559 179:-0.032532 180:0.00501817 181:-0.0336488 182:0.0240831 183:-0.0201039 184:0.00887518 185:-0.0217244 186:-0.0330376 187:0.00225084 188:0.0361364 189:0.0219146 190:0.0254346 191:-0.0314136 192:0.0347631 193:-0.0827255 194:0.0194023 195:0.015987 196:-0.0144125 197:0.0219394 198:-0.0479857 199:-0.0862479 200:0.0419859 201:-0.00366134 202:0.021464 203:-0.00905834 204:-0.045998 205:-0.0477849 206:-0.0666816 207:-0.0497905 208:-0.0166205 209:-0.00577715 210:0.019193 211:-0.00814642 212:-0.04337 213:0.0996044 214:-0.0060987 215:-0.065156 216:-0.106494 217:-0.0785662 218:-0.0249421 219:0.0257414 220:-0.0767183 221:0.0353301 222:0.0181587 223:0.00718054 224:-0.0887663 225:-0.0502902 226:0.00901979 227:0.0668893 228:0.0701978 229:0.00660591 230:-0.0208833 231:-0.0524725 232:0.0587531 233:0.113644 234:0.0239091 235:-0.0968922 236:0.0190903 237:-0.00344854 238:-0.0370747 239:-0.0128493 240:0.0232882 241:0.00325987 242:0.0327847 243:0.0535882 244:0.0769543 245:0.0223218 246:-0.0615553 247:0.00206486 248:0.0352868 249:0.046231 250:0.00945699 251:-0.00144598 252:0.0134715 253:-0.0520658 254:-0.00238794 255:-0.0278407 256:-0.0177313 257:0.116022 258:0.0337939 259:0.0773193 260:-0.0175364 261:-0.0402168 262:0.0590851 263:-0.0397997 264:0.0377422 265:-0.0160976 266:0.00424909 267:0.0253052 268:0.0239282 269:0.00914444 270:-0.0698482 271:0.00918395 272:-0.0373935 273:-0.0279029 274:0.0226321 275:0.0315747 276:0.00252469 277:0.00653168 278:0.027878 279:0.00552262 280:0.00256347 281:0.0274453 282:-0.0275401 283:-0.00439222 284:-0.0182354 285:-0.0265011 286:-0.0415624 287:-0.0141562 288:0.0159138 289:0.0561096 290:0.0473916 291:0.0211352 292:0.0137598 293:0.0853515 294:0.0168651 295:0.0615461 296:0.0761799 297:-0.0415533 298:-0.0534249 299:0.0050704 300:-0.0218436 301:0.069246 302:-0.00344466 303:0.00679008 304:0.0825518 305:-0.0544998 306:0.0743262 307:0.00606426 308:-0.0148608 309:0.0247402 310:0.0156213 311:0.00256739 312:-0.00817681 313:0.0221861 314:-0.0130796 315:0.0389979 316:0.0115155 317:0.0054001 318:0.0240114 319:-0.0218475 320:0.0227929 321:-0.0654985 322:-0.0274624 323:0.0225822 324:0.0250585 325:-0.00395044 326:0.00677175 327:0.00601949 328:0.00623121 329:-0.0907499 330:-0.0767268 331:-0.0395008 332:0.0280485 333:0.049115 334:-0.0775549 335:0.0545695 336:0.0772893 337:0.0118984 338:-0.0154987 339:-0.011788 340:-0.00954176 341:0.0149975 342:-0.0203183 343:0.0438765 344:0.0266391 345:-0.0153061 346:0.0485922 347:-0.0205155 348:-0.0296109 349:0.136514 350:-0.0101248 351:0.0650642 352:-0.0312584 353:0.0335123 354:0.0142379 355:0.034299 356:-0.00966993 357:0.00222717 358:0.0379078 359:-0.0281887 360:-0.018372 361:0.0158766 362:0.107691 363:0.0072102 364:0.0223354 365:-0.06046 366:-0.0157785 367:0.0965009 368:-0.0242133 369:0.0780448 370:0.0018351 371:0.0245344 372:-0.0177476 373:0.0460897 374:0.00851693 375:-0.0317817 376:-0.0488503 377:-0.0280314 378:-0.0115802 379:-0.0408159 380:-0.0326986 381:-0.0011462 382:0.0403696 383:-0.0170316 384:-0.0285001 385:0.0193366 386:0.0549569 387:0.0137455 388:0.0549067 389:0.0396773 390:0.027505 391:0.00868462 392:0.0660133 393:0.0399215 394:-0.046287 395:0.0266508 396:-0.0306734 397:0.0851572 398:0.0170819 399:0.0219587 400:0.0275133 401:-0.0160657 402:0.00256935 403:-0.0196134 404:0.0331775 405:0.0520191 406:-0.041331 407:0.0551513 408:0.0438061 409:0.0100251 410:0.0270683 411:-0.0369534 412:-0.0627651 413:-0.0531554 414:0.0417277 415:0.0303269 416:-0.00237493 417:0.00218959 418:0.0193171 419:-0.0129054 420:0.0449319 421:-0.0305271 422:0.0511408 423:-0.0366223 424:-0.0378447 425:-0.0615466 426:-0.0325605 427:-0.0323913 428:0.0136479 429:0.0114452 430:0.00335554 431:0.00106588 432:-0.0320403 433:-0.00861413 434:-0.0714978 435:-0.0340086 436:0.00890488 437:0.0461642 438:-0.0333435 439:-0.0265372 440:-0.0164889 441:0.0316207 442:-0.0466235 443:0.0226298 444:0.0550613 445:-0.052519 446:0.0572567 447:0.0362814 448:-0.0165682 449:0.0205582 450:0.050767 451:0.00853796 452:-0.0892064 453:-0.00474673 454:-0.00463711 455:0.0698144 456:-0.0280604 457:-0.0208753 458:-0.0799729 459:-0.022224 460:0.00213319 461:0.0187044 462:-0.0106993 463:0.0223153 464:0.0297762 465:-0.0962038 466:0.0021095 467:0.0524881 468:-0.0339492 469:0.0506523 470:-0.000925012 471:-0.0846995 472:0.0322976 473:0.0151991 474:-0.0397789 475:0.0268173 476:0.0274497 477:-0.0509567 478:-0.0115458 479:-0.083702 480:-0.0766229 481:0.0149239 482:-0.00828636 483:0.0231184 484:-0.0304487 485:0.0852449 486:0.0392898 487:-0.0604641 488:-0.0159774 489:-0.0134682 490:0.0115429 491:-0.0432577 492:-0.03305 493:0.0283422 494:0.0849566 495:-0.0248928 496:0.00213172 497:0.00509075 498:-0.0417286 499:-0.0889279 500:-0.016124 501:0.0476688 502:0.0515886 503:-0.0247998 504:0.0341917 505:-0.0130508 506:-0.0217619 507:-0.0458737 508:-0.0170107 509:-0.0456046 510:0.00454527 511:-0.115916 
0.11357850755464087 0 0 0 1 0.729426935630896 0 0 0 0 0 0 0.013009355790149394 0:0.0373787 1:-0.0421459 2:0.00844019 3:-0.0921165 4:-0.0561905 5:0.0704121 6:0.0123944 7:0.07774 8:-0.0500696 9:0.00483905 10:-0.00557794 11:-0.0330998 12:-0.0131468 13:-0.0703628 14:0.0256085 15:-0.0982331 16:0.0167703 17:-0.0179186 18:0.00272837 19:0.0611184 20:0.0134894 21:-0.0245948 22:0.00333456 23:-0.0206626 24:-0.006436 25:-0.015086 26:-0.0348693 27:0.0224445 28:-0.0723546 29:-0.0292406 30:0.0273963 31:-0.0117684 32:-0.0347137 33:0.0663286 34:-0.0466642 35:0.0653086 36:-0.101399 37:0.0233314 38:0.0202867 39:-0.010586 40:0.0543916 41:-9.92699e-05 42:-0.124955 43:-0.023283 44:0.0242003 45:0.0361061 46:0.00545992 47:-0.020134 48:-0.00218017 49:0.0720133 50:0.0438541 51:-0.0806437 52:0.00533433 53:0.00252423 54:-0.0558651 55:0.0444976 56:-0.0384653 57:-0.0337436 58:0.0776814 59:0.047158 60:0.0480556 61:-0.0529089 62:0.00997996 63:-0.0411634 64:0.0581152 65:0.0168075 66:-0.00601769 67:-0.0176065 68:0.0136007 69:0.00303829 70:0.0486581 71:0.0573922 72:0.0391878 73:0.0543091 74:-0.0337823 75:-0.0526283 76:-0.0320985 77:0.0816388 78:-0.0456649 79:-0.0152472 80:0.0162603 81:0.0179217 82:0.00955428 83:-0.00104216 84:-0.0862521 85:0.000932767 86:0.0764023 87:-0.0779762 88:-0.0347796 89:-0.00465189 90:-0.0214527 91:-0.0812061 92:-0.0759933 93:-0.0143036 94:-0.0793265 95:-0.077322 96:0.0137234 97:0.100703 98:0.0279634 99:0.0166129 100:-0.0153541 101:-0.0180824 102:0.00448363 103:-0.000866828 104:-0.0131819 105:-0.0267285 106:0.00966763 107:0.0724856 108:-0.0285249 109:-0.0482034 110:-0.0286638 111:-0.0406596 112:-0.018775 113:-0.00570532 114:-0.0886608 115:0.0216312 116:-0.108113 117:0.0125201 118:0.0216672 119:0.0699333 120:0.00261511 121:-0.0364222 122:-0.0439434 123:-0.0355043 124:-0.0248981 125:-0.00947734 126:-7.77316e-05 127:-0.0819642 128:0.07806 129:0.0614872 130:-0.00773753 131:0.00375247 132:0.0122702 133:0.000997648 134:-0.0470518 135:0.0421631 136:-0.0519532 137:-0.0296083 138:-0.0193513 139:-0.0217945 140:0.0303127 141:-0.0104697 142:-0.0744526 143:-0.056126 144:0.0177763 145:0.044141 146:0.0227253 147:-0.0231482 148:0.0358287 149:-0.0387112 150:0.0769888 151:0.110026 152:0.0452877 153:-0.0756826 154:0.0106968 155:-0.0424427 156:0.0486142 157:-0.0167547 158:0.00129487 159:-0.0489868 160:-0.0361728 161:0.0608233 162:0.0610425 163:-0.0178434 164:0.00557988 165:-0.0911257 166:-0.0267594 167:0.0668234 168:-0.0236057 169:0.0605024 170:-0.0611466 171:0.00496148 172:0.00117488 173:-0.0470181 174:-0.0325945 175:-0.0283271 176:0.000153394 177:-0.0177924 178:0.0411873 179:-0.0667419 180:0.0291103 181:-0.0970119 182:0.0395923 183:0.0028681 184:-0.0155673 185:-0.0317603 186:0.00315022 187:0.0147667 188:0.0659665 189:-0.0353865 190:-0.00296097 191:0.0399596 192:0.0219362 193:-0.0577588 194:0.00531388 195:0.0566871 196:-0.00896898 197:-0.0310505 198:-0.0678574 199:-0.0768292 200:0.0922261 201:0.00186145 202:0.0521323 203:0.0419915 204:0.00985703 205:-0.0129394 206:-0.0526319 207:-0.016091 208:0.0367225 209:0.0482443 210:0.0323935 211:-0.0042592 212:-0.00783624 213:0.00909111 214:0.0171237 215:-0.0730728 216:-0.0916602 217:-0.0497652 218:0.0516175 219:0.0118323 220:-0.0640988 221:0.0106527 222:-0.0116524 223:0.0575077 224:-0.0165601 225:-0.036649 226:-0.0101337 227:0.00878584 228:0.0710648 229:0.0346226 230:-0.0048033 231:-0.0386052 232:0.091148 233:0.129797 234:0.027319 235:-0.0652479 236:0.0164218 237:0.00159979 238:-0.0311481 239:-0.0094092 240:0.0347548 241:0.0356831 242:0.0245894 243:0.0593522 244:0.0821199 245:-0.0309717 246:-0.0603357 247:0.0546875 248:-0.00817363 249:0.043898 250:0.0100258 251:-0.0216333 252:0.00631979 253:-0.0189335 254:0.00878508 255:0.00588044 256:0.00201707 257:0.139958 258:0.0255452 259:0.0769432 260:-0.00935355 261:-0.0157572 262:0.0225435 263:-0.016762 264:-0.00278097 265:0.00781744 266:0.0210237 267:0.035988 268:0.0345899 269:0.00920929 270:-0.0414805 271:-0.0187505 272:0.00637199 273:-0.0564232 274:0.00325077 275:-0.0425784 276:-0.0325199 277:0.00356758 278:0.0534951 279:0.0233237 280:-0.0556787 281:0.0218418 282:-0.0374619 283:-0.0160664 284:0.00481615 285:0.0381937 286:-0.00990102 287:0.00194127 288:0.0605425 289:0.00437186 290:0.0146614 291:0.0294675 292:0.015497 293:0.0783288 294:-0.00777571 295:0.0640171 296:0.0999107 297:0.00246985 298:0.017785 299:0.0227712 300:-0.00439095 301:0.0451379 302:-0.067602 303:0.00924545 304:0.0919929 305:-0.0646854 306:0.0822259 307:0.0100282 308:0.0472513 309:0.0745326 310:0.0997796 311:-0.0206076 312:-0.0211113 313:0.0485476 314:-0.0176553 315:0.0302305 316:-0.0258509 317:-0.00221572 318:0.0364158 319:-0.0816933 320:0.0194026 321:-0.0668797 322:-0.0150117 323:0.0272009 324:0.0324694 325:-0.00921911 326:0.0172605 327:0.0177712 328:0.0255177 329:-0.0966337 330:-0.06275 331:-0.0125178 332:-0.0023237 333:-0.0183277 334:-0.0222987 335:0.0454423 336:0.0470257 337:-0.0146198 338:-0.0230615 339:0.00170931 340:-0.00166049 341:0.0165235 342:-0.00163921 343:0.018987 344:0.0195096 345:-0.0140962 346:-0.0210181 347:-0.0460461 348:-0.0256386 349:0.0803938 350:0.00582841 351:0.0516601 352:-0.0051318 353:0.00645383 354:-0.00720692 355:0.0455069 356:0.00254234 357:0.00304697 358:-0.0105589 359:-0.0169436 360:-0.016916 361:0.0410489 362:0.025397 363:0.0204698 364:0.00298252 365:-0.0244631 366:-0.00524395 367:0.116483 368:-0.0276599 369:0.0671693 370:-0.0403794 371:0.0136391 372:-0.0401043 373:0.0481562 374:0.0136591 375:-0.0151743 376:-0.0164339 377:-0.0148211 378:0.0106807 379:0.00938302 380:-0.0482728 381:0.0118241 382:0.0416198 383:0.0114787 384:0.0159582 385:-0.023654 386:0.0178272 387:-0.0149341 388:0.0378995 389:0.0607709 390:0.0147903 391:0.0391869 392:0.0612017 393:0.0830002 394:-0.0133796 395:-0.0271721 396:-0.027731 397:0.0319247 398:-0.0154171 399:0.0179418 400:0.0417141 401:-0.0482686 402:0.0129899 403:-0.0411465 404:0.00621164 405:0.0713407 406:2.3941e-05 407:0.0816873 408:-0.00531514 409:0.0464437 410:0.0252499 411:-0.0517457 412:-0.0432072 413:-0.03336 414:0.013595 415:0.0113061 416:-0.0353167 417:-0.00849343 418:-0.00214108 419:-0.0249466 420:0.032927 421:-0.0404369 422:-0.0273025 423:-0.122742 424:-0.0639687 425:-0.0404881 426:-0.0195097 427:-0.0658446 428:0.0192705 429:0.0146767 430:-0.0458009 431:-0.0755846 432:-0.0231573 433:-0.00379901 434:-0.0918279 435:-0.00212717 436:0.0340277 437:0.0146733 438:-0.0033203 439:-0.00408747 440:-0.0124032 441:0.0264291 442:-0.0174633 443:0.00259565 444:0.0237424 445:-0.0536581 446:-0.0159892 447:0.0354073 448:-0.0470739 449:0.0183927 450:0.00212434 451:-0.0212862 452:-0.0191693 453:0.0304708 454:0.0134706 455:0.0644922 456:-0.0484014 457:-0.0430384 458:-0.0534746 459:-0.0365018 460:-0.0239563 461:-0.00163348 462:0.0305151 463:0.0387791 464:0.0158207 465:-0.0875096 466:0.0392906 467:0.0867665 468:-0.00972215 469:0.0504709 470:0.0593828 471:-0.052479 472:0.049964 473:0.0288424 474:0.0124104 475:0.0561452 476:0.0381499 477:-0.0840764 478:-0.0195357 479:-0.0882148 480:-0.0676692 481:0.0259014 482:-0.0377179 483:-0.00383438 484:-0.0224494 485:0.0226451 486:0.0169 487:-0.0196036 488:-0.0103931 489:0.0108272 490:-0.0318608 491:0.00386669 492:-0.0704376 493:0.0472558 494:0.0776993 495:0.0117746 496:0.018012 497:-0.0552044 498:-0.0257763 499:-0.031856 500:0.0249113 501:0.0949343 502:0.0332239 503:-0.0316057 504:0.0162301 505:-0.0575183 506:-0.0432561 507:-0.0371121 508:-0.0321897 509:-0.108242 510:0.0228224 511:-0.137102 
0.041559708286757466 0 0 0 0 0 0 0 0 0 0.047211542654301261 0 0 0:0.00896008 1:-0.00412882 2:-0.00216344 3:-0.051163 4:0.0144974 5:-0.0284947 6:0.0142922 7:0.0443849 8:-0.0047535 9:0.00781218 10:0.00975807 11:-0.0296997 12:-0.0654979 13:-0.0704919 14:0.0378033 15:-0.0588972 16:0.0324904 17:-0.0391483 18:0.0608971 19:0.00633133 20:0.000941771 21:0.0125239 22:0.000176897 23:-0.0116028 24:-0.0220864 25:-0.041639 26:-0.135927 27:-0.0223755 28:0.0241259 29:-0.0487452 30:0.0396321 31:0.0177943 32:-0.0456564 33:0.0701744 34:-0.0601698 35:0.0230459 36:-0.104127 37:0.0269104 38:-0.00201351 39:-0.0307945 40:0.0476626 41:-0.0447782 42:-0.0766197 43:0.0671936 44:-0.0274083 45:0.0486658 46:0.0113358 47:0.0236383 48:-0.0101183 49:0.12934 50:0.00794163 51:-0.0231538 52:-0.0756696 53:0.00945244 54:-0.0107305 55:0.053132 56:0.0158057 57:-0.0875977 58:0.086246 59:0.0109017 60:0.0276174 61:0.0115932 62:-0.0450106 63:-0.0113303 64:0.0738048 65:0.108577 66:0.0120573 67:-0.0804831 68:0.0418378 69:0.0293096 70:-0.00696576 71:0.0232945 72:0.060562 73:0.0310397 74:-0.0334144 75:-0.0428964 76:-0.0405695 77:0.0202439 78:-0.0150839 79:0.00375333 80:0.0447613 81:-0.014652 82:0.0618961 83:-0.00836989 84:-0.0510863 85:0.028908 86:0.0504893 87:-0.109454 88:-0.0257235 89:0.0194542 90:0.0491937 91:-0.048656 92:-0.0380618 93:-0.0823678 94:-0.0400773 95:-0.0181666 96:0.00102057 97:-0.00223289 98:0.0442418 99:0.0221704 100:-0.021853 101:0.0143096 102:-0.0207486 103:0.0286871 104:0.026593 105:-0.036558 106:0.0192741 107:-0.00900215 108:-0.0262387 109:-0.0140039 110:-0.0850351 111:-0.0549821 112:0.00533079 113:0.00764966 114:-0.0821758 115:0.068917 116:-0.0423845 117:-0.0304507 118:0.0367118 119:-0.0146617 120:0.0629142 121:-0.00108926 122:-0.0237082 123:-0.0455373 124:0.0271483 125:-0.00325286 126:-0.0274272 127:-0.0521074 128:0.100253 129:0.0278422 130:-0.00453298 131:-0.0105836 132:-0.0115876 133:-0.0183456 134:-0.0638088 135:0.0210739 136:0.0271658 137:0.0299789 138:-0.0470594 139:-0.0453444 140:0.0264616 141:-0.00272209 142:-0.0627186 143:0.0306396 144:-0.0151936 145:0.0417394 146:0.0289979 147:0.0480346 148:0.0342447 149:-0.00118618 150:0.0668983 151:-0.00785789 152:0.0121601 153:-0.00546404 154:0.0687719 155:-0.00977208 156:-0.00262 157:0.0606904 158:0.0248446 159:-0.0226514 160:-0.0468501 161:0.00692372 162:0.0879236 163:-0.0400511 164:-0.00994405 165:-0.0796093 166:-0.0260047 167:0.0514303 168:-0.0275066 169:0.0362154 170:-0.0120308 171:-0.0971279 172:0.0325046 173:-0.0666094 174:-0.0511336 175:-0.030744 176:-0.0259736 177:-0.00316696 178:0.00801835 179:-0.0726066 180:0.071578 181:-0.0478901 182:0.029812 183:0.0516668 184:0.0298516 185:-0.033676 186:0.00464126 187:-0.00226878 188:0.0397068 189:0.040225 190:-0.0226695 191:-0.0292561 192:0.0524343 193:-0.0534544 194:0.106433 195:0.0622881 196:-0.0102199 197:-0.0116827 198:-0.0530316 199:-0.0671183 200:-0.0488152 201:-0.0343288 202:0.0212886 203:0.0950198 204:-0.0300197 205:0.0105003 206:0.0143252 207:0.0125126 208:0.0228163 209:-0.0154462 210:0.0136046 211:0.0514649 212:0.0466541 213:0.0447228 214:0.0139819 215:-0.0347264 216:-0.0356336 217:-0.0620985 218:0.0155681 219:0.0268907 220:-0.00565981 221:-0.0752362 222:-0.0111461 223:-0.0107653 224:-0.0313659 225:-0.0519352 226:0.030828 227:-0.0477326 228:-0.0307202 229:0.0203865 230:-0.0660946 231:0.0613634 232:0.0532297 233:0.0807052 234:0.036305 235:-0.0232289 236:-0.0443892 237:0.00149645 238:-0.00377146 239:-0.0281123 240:0.00482063 241:-0.016709 242:-0.0433038 243:0.0630263 244:0.0388285 245:-0.00534564 246:-0.0234747 247:0.0430637 248:0.0223274 249:0.00277299 250:0.0071518 251:0.00330058 252:0.0192922 253:-0.0210376 254:-0.00874947 255:-0.000424312 256:0.0505892 257:0.139005 258:0.0253636 259:0.016794 260:-0.0308707 261:0.00111654 262:-0.0057227 263:-0.0528322 264:0.00845705 265:-0.0216726 266:-0.0115988 267:0.0804428 268:0.057404 269:-0.00438864 270:-0.107923 271:-0.0445831 272:-0.0401121 273:0.0150795 274:0.030155 275:0.00815044 276:-0.0301768 277:0.0845669 278:0.0452565 279:0.0358399 280:-0.0693866 281:-0.0439253 282:-0.0503923 283:-0.0483841 284:0.0347821 285:0.0148568 286:-0.0588115 287:0.0527187 288:0.00907426 289:0.0551388 290:0.0569861 291:-0.00175027 292:-0.0210717 293:0.0433434 294:0.057645 295:-0.0154537 296:0.109678 297:0.0579932 298:-0.0645938 299:0.00267709 300:0.0516412 301:0.0504506 302:-0.0178783 303:-0.0185026 304:0.0688025 305:-0.0420924 306:0.0483845 307:0.0441728 308:0.00427826 309:0.0229222 310:0.0896122 311:0.00270263 312:-0.0349882 313:0.0519234 314:-0.0270839 315:0.0617289 316:-0.0352152 317:0.0251697 318:0.00924221 319:-0.0325376 320:0.0351489 321:-0.0589013 322:-0.034585 323:-0.0414577 324:0.039096 325:-0.0187304 326:-0.00148921 327:-0.0490145 328:0.0148227 329:-0.0370255 330:-0.0117759 331:-0.0288404 332:0.0622023 333:0.0088758 334:0.00504925 335:0.0404881 336:0.0236473 337:0.0419273 338:-0.00742876 339:-0.0518604 340:0.0419087 341:0.0153094 342:-0.00139912 343:0.0661634 344:-0.050418 345:-0.00306142 346:-0.0702461 347:-0.0736767 348:-0.0942187 349:0.049173 350:-0.0148668 351:0.0029269 352:0.0356314 353:0.062075 354:-0.0294 355:-0.00283146 356:-0.0597344 357:0.00234807 358:0.0490657 359:-0.0496762 360:0.0299713 361:0.0913184 362:0.0150081 363:0.041634 364:0.0553644 365:-0.0478251 366:-0.0253529 367:0.0968089 368:-0.0927049 369:0.103469 370:-0.0437853 371:0.0182329 372:-0.0198559 373:0.0201215 374:-0.00436734 375:-0.0341843 376:0.0272962 377:-0.0313283 378:0.0244938 379:-0.015076 380:0.00544811 381:-0.0438465 382:-0.0242565 383:0.00346586 384:0.03358 385:-0.0300758 386:0.0994259 387:0.0291783 388:0.0295715 389:-0.00496777 390:0.0155061 391:-0.066448 392:-0.018932 393:0.0112148 394:-0.00432455 395:0.0379418 396:-0.0175914 397:0.0525933 398:-0.012271 399:0.0484585 400:0.069252 401:0.00438167 402:0.0178661 403:-0.0440185 404:-0.00815909 405:0.0888045 406:-0.00285848 407:0.0862259 408:-0.0381766 409:0.0297416 410:0.00351475 411:-0.0497395 412:-0.0589676 413:0.0177096 414:-0.0116986 415:-0.00821439 416:-0.047841 417:0.0319899 418:-0.0257585 419:0.020039 420:-0.0171273 421:-0.0250165 422:-0.0128509 423:-0.0119441 424:0.0112788 425:-0.123044 426:0.0376249 427:-0.0674774 428:0.040606 429:0.0648837 430:0.0169203 431:-0.0406382 432:-0.0120391 433:-0.0272411 434:-0.0335444 435:0.0294368 436:0.00895776 437:0.0197691 438:0.063509 439:-0.046527 440:-0.0566949 441:0.0876548 442:0.00296769 443:-0.00577987 444:-0.00118074 445:-0.0612628 446:-0.0447434 447:-0.00377842 448:-0.00411004 449:-0.0186719 450:-0.0317431 451:0.0154875 452:-0.00212821 453:0.0108902 454:0.0350226 455:-0.0367386 456:-0.08514 457:-0.0167985 458:-0.0547342 459:-0.0332798 460:-0.0790904 461:0.0304668 462:-0.0442792 463:0.0174626 464:0.016889 465:-0.0271066 466:0.00807506 467:0.0412026 468:-0.0615609 469:0.0241229 470:0.0845963 471:-0.0203627 472:0.0845077 473:0.0219853 474:0.0242796 475:0.00127401 476:0.00770146 477:-0.0759416 478:-0.0421997 479:-0.0554959 480:-0.0175398 481:0.0220412 482:-0.042516 483:0.0660916 484:-0.0856826 485:0.0482539 486:0.0297265 487:-0.0556844 488:-0.0179036 489:0.0124747 490:-0.0682278 491:-0.00408126 492:-0.0854646 493:-0.0161805 494:0.0182805 495:0.020313 496:0.0107129 497:-0.00841663 498:0.0141722 499:-0.0368045 500:-0.0474219 501:-0.0103222 502:0.0305886 503:-0.0525548 504:0.0536292 505:0.00380198 506:-0.00495876 507:-0.034142 508:0.00590235 509:-0.083471 510:0.0649918 511:-0.0731019 
0 0 0 0 0 0 0 0 0 0 0.11634969630397711 0 0 0:0.0383539 1:0.00687522 2:0.00414788 3:-0.0212146 4:0.0264461 5:-0.00515946 6:0.0182446 7:-0.0106864 8:0.0385344 9:-0.00909672 10:0.0431281 11:-0.066522 12:-0.0653021 13:-0.0814134 14:0.0520776 15:-0.0583242 16:0.0566976 17:-0.0520166 18:0.0330535 19:-0.00647145 20:0.0200172 21:-0.0328201 22:0.00610393 23:-0.0100103 24:-0.00196659 25:-0.0313229 26:-0.123776 27:-0.0397008 28:-0.0487726 29:0.0255667 30:0.00995702 31:-0.0260355 32:-0.0534529 33:0.00213064 34:-0.035813 35:-0.00953848 36:-0.0855259 37:-0.0050307 38:-0.0140672 39:-0.0170685 40:0.0307665 41:-0.0662051 42:-0.0463882 43:0.0129524 44:-0.0306076 45:0.0311427 46:-0.00963878 47:0.0107332 48:-0.0110199 49:0.0782768 50:-0.00451878 51:-0.0238565 52:-0.0522321 53:-0.0296688 54:-0.0233888 55:0.0127801 56:-0.0284683 57:-0.0651643 58:0.0670926 59:0.0350446 60:0.0662793 61:0.00895803 62:0.0146294 63:0.00928435 64:0.0768943 65:0.0753372 66:-0.0047199 67:-0.0270496 68:0.0333453 69:0.0343057 70:0.00668519 71:-0.00729367 72:-0.0032207 73:-0.0223378 74:-0.0212927 75:-0.0406709 76:-0.0156089 77:0.0694091 78:-0.031155 79:0.000302443 80:0.0474564 81:0.0194379 82:0.0302483 83:-0.0251694 84:-0.0196164 85:-0.0144519 86:0.0789452 87:-0.113805 88:-0.029893 89:-0.0471892 90:-0.00045191 91:-0.0889947 92:-0.0642909 93:-0.00495007 94:-0.0539004 95:-0.00313088 96:0.0265717 97:0.0604211 98:0.0524421 99:0.0498762 100:-0.0105328 101:0.0160703 102:0.0139189 103:-0.00244742 104:0.0404862 105:-0.0165364 106:0.02082 107:0.00457 108:-0.0190177 109:0.0213202 110:-0.0410111 111:-0.0656709 112:-0.0437495 113:-0.0262818 114:-0.0502089 115:0.0113992 116:-0.0591453 117:-0.0228395 118:0.0211951 119:0.00209294 120:0.00353856 121:-0.00853649 122:-0.0263202 123:-0.0737909 124:0.0040391 125:-0.0513879 126:0.0216334 127:-0.047181 128:0.0808226 129:0.0370337 130:0.0128951 131:-0.0134632 132:-0.0233281 133:-0.0281752 134:-0.0423272 135:-0.025769 136:0.0286399 137:0.0041824 138:-0.0578526 139:-0.0373527 140:0.0659598 141:-0.00166454 142:-0.0631462 143:0.0299575 144:-0.0121904 145:0.130888 146:0.00516429 147:0.0308896 148:0.00204432 149:-0.00863032 150:0.037671 151:0.0427861 152:0.0149986 153:0.0132318 154:0.0977385 155:0.0342986 156:-0.0148057 157:0.00502541 158:-0.00546111 159:-0.0915385 160:-0.0270267 161:0.0433373 162:0.0885915 163:0.0199366 164:-0.0142536 165:-0.0696628 166:-0.00681787 167:0.0144262 168:-0.0445134 169:-0.0153625 170:-0.0614592 171:-0.0631436 172:0.00911124 173:-0.00868256 174:-0.0469817 175:-0.0441582 176:0.0256128 177:-0.00245748 178:0.0408745 179:-0.068058 180:0.0303818 181:-0.0487423 182:0.0629937 183:0.014134 184:0.00406009 185:-0.0501538 186:0.0146044 187:-0.046094 188:0.0400832 189:-0.0147671 190:-0.0470244 191:0.0312177 192:0.0276492 193:0.037813 194:0.0548583 195:0.0488551 196:-0.0189549 197:-0.0314931 198:-0.0358567 199:-0.00988312 200:0.0500814 201:0.0217974 202:0.0250251 203:0.138862 204:0.0153666 205:0.0380637 206:0.0465625 207:0.026452 208:0.123763 209:0.0218644 210:-0.0314493 211:0.0412273 212:0.0891903 213:0.01782 214:0.0129009 215:-0.0440932 216:-0.0393482 217:-0.0682661 218:0.0307795 219:-0.0282689 220:-0.00307703 221:-0.0377167 222:0.0076914 223:-0.0199599 224:0.0269977 225:-0.0234161 226:0.00813929 227:-0.0134695 228:-0.0113502 229:0.051038 230:-0.0377188 231:0.0438481 232:0.0101542 233:0.107258 234:0.0211502 235:0.0139193 236:0.011187 237:0.013251 238:0.059552 239:-0.0169163 240:0.0252418 241:0.0126648 242:-0.0412585 243:0.00167836 244:-0.00888214 245:-0.0215005 246:-0.03591 247:0.0276966 248:-0.0161982 249:0.0362435 250:-0.0115796 251:0.0328406 252:0.0176845 253:-0.0117511 254:-0.0291624 255:0.0370158 256:0.0418604 257:0.114566 258:0.00844512 259:0.0672399 260:0.00862769 261:-0.0507187 262:0.0235402 263:-0.0211132 264:0.00844889 265:0.0345664 266:0.0132762 267:0.0644777 268:0.0213412 269:-0.0141923 270:-0.0879665 271:0.00377754 272:-0.0132758 273:0.0136733 274:-0.00215233 275:-0.0258613 276:-0.0133015 277:0.0738279 278:0.0291644 279:-0.00935574 280:-0.0418614 281:0.0406727 282:-0.0853588 283:-0.0405358 284:0.0394469 285:0.0166401 286:-0.037047 287:0.00504687 288:0.00939916 289:0.0507447 290:0.0892682 291:0.0118031 292:0.00269408 293:0.0211127 294:0.00123518 295:-0.0068597 296:0.0922276 297:0.0271679 298:-0.026877 299:-0.0105868 300:0.0151068 301:-0.0272143 302:-0.0768263 303:0.0480295 304:0.043012 305:-0.0537775 306:0.0819001 307:0.0252142 308:0.0252697 309:0.00886602 310:0.111675 311:-0.00372132 312:0.00335676 313:0.0442562 314:-0.0268733 315:0.0498901 316:0.0156479 317:-0.0124191 318:-0.0107733 319:-0.0548375 320:-0.00453786 321:-0.102713 322:-0.0205974 323:-0.0385888 324:0.0575294 325:0.0182932 326:-0.0348717 327:0.00220642 328:0.0456999 329:-0.0175976 330:-0.0563522 331:-0.0451716 332:0.0407109 333:0.0308809 334:0.00462078 335:0.0480228 336:-0.00268203 337:0.0439892 338:-0.0367897 339:-0.0705563 340:0.0384493 341:0.0248729 342:0.0168599 343:0.0704774 344:-0.0176222 345:0.00683023 346:-0.0317457 347:-0.0821058 348:-0.0512345 349:0.0290455 350:-0.0132374 351:0.00803191 352:0.0511331 353:0.018929 354:-0.0861649 355:0.0833337 356:-0.00584008 357:1.29088e-05 358:0.0044099 359:-0.0150753 360:0.0314587 361:0.102715 362:-0.0206573 363:-0.0162396 364:0.0303116 365:-0.042446 366:-0.0157117 367:0.0954613 368:-0.0797719 369:0.0416394 370:-0.0624694 371:0.0110035 372:0.0595305 373:0.0174951 374:0.0114308 375:0.0113476 376:0.00408659 377:-0.0212188 378:0.048614 379:0.00817083 380:-0.000671539 381:-0.0459482 382:0.0219776 383:0.0372671 384:0.0711472 385:-0.0388703 386:0.0722858 387:0.0140975 388:0.0247784 389:0.00866788 390:-0.0127715 391:-0.0257762 392:-0.0374466 393:0.0217945 394:0.0205332 395:0.0109444 396:-0.007833 397:0.0132948 398:-0.0433303 399:0.0291395 400:0.0729018 401:-0.0122366 402:0.0430054 403:-0.0103621 404:-0.0626641 405:0.136157 406:-0.0183241 407:0.0773333 408:-0.00852562 409:0.0342686 410:-0.0720273 411:-0.0474047 412:-0.0492288 413:0.0355878 414:-0.054774 415:-0.024218 416:-0.0548854 417:-0.0159717 418:0.0360901 419:-0.00794813 420:0.00700219 421:-0.0890614 422:-0.0542628 423:0.0119598 424:-0.0149289 425:-0.0818764 426:0.0634745 427:-0.0593031 428:0.0204103 429:0.0604828 430:-0.00703817 431:-0.0748126 432:-0.00182998 433:-0.0184822 434:-0.134919 435:0.0368678 436:0.00533141 437:0.00687277 438:0.0147642 439:-0.0209519 440:-0.0789603 441:0.0697093 442:-0.0160178 443:0.0478193 444:0.00581447 445:-0.0445131 446:-0.0549857 447:0.00792782 448:-0.00777515 449:0.0171117 450:-0.0217539 451:0.0151523 452:-0.00810778 453:-0.0513054 454:-0.0350228 455:0.029011 456:-0.127353 457:0.0310021 458:-0.0202629 459:-0.0363624 460:-0.12698 461:0.00219375 462:0.0497783 463:0.0618824 464:-0.0476358 465:-0.0360457 466:0.022345 467:-0.0307772 468:-0.037309 469:0.0254252 470:0.0780635 471:0.000242984 472:0.0689012 473:0.0507353 474:0.00370943 475:0.0316658 476:0.0348268 477:-0.0834312 478:-0.0135408 479:-0.0410462 480:-0.0533757 481:0.0106292 482:-0.0576042 483:0.0276313 484:-0.0795586 485:0.0411575 486:0.0101344 487:0.0153985 488:-0.0102976 489:0.0169765 490:-0.0971887 491:-0.0126768 492:-0.079101 493:-0.037125 494:0.068193 495:0.0274819 496:0.0236101 497:-0.00191913 498:0.02506 499:-0.00871918 500:-0.0189122 501:0.0396752 502:0.0707328 503:-0.0196719 504:-0.00644474 505:0.0203498 506:0.00160806 507:-0.0396685 508:-0.0179153 509:-0.103486 510:0.0626526 511:-0.112665 
